tree
version=v4
num_class=1
num_tree_per_iteration=1
label_index=0
max_feature_idx=31
objective=binary sigmoid:1
feature_names=PitcherThrows Balls Strikes BatterSide RelSpeed az0 ax0 RelSide RelHeight Extension PlateLocSide PlateLocHeight SpinRate SpinAxis LIHAA LIVAA row_index TaggedPitchTypeChangeup TaggedPitchTypeChangeUp TaggedPitchTypeCurveball TaggedPitchTypeCutter TaggedPitchTypeFastball TaggedPitchTypeFourSeamFastBall TaggedPitchTypeKnuckleball TaggedPitchTypeOneSeamFastBall TaggedPitchTypeOther TaggedPitchTypeSinker TaggedPitchTypeSlider TaggedPitchTypeSplitter TaggedPitchTypeSweeper TaggedPitchTypeTwoSeamFastBall TaggedPitchTypeUndefined
feature_infos=[0:1] [0:3] [0:2] [0:1] [55.426659999999998:100.59826] [-69.247:19.058869999999999] [-40.690109999999997:28.48265] [-6.5160499999999999:6.1734200000000001] [1.4976:8.9637899999999995] [-0.78398999999999996:11.53619] [-3.1243599999999998:3.8557899999999998] [-0.16952999999999999:5.8487999999999998] [633.92693299999996:3594.140484] [0.018429999999999998:359.98581899999999] [-10.06994469836388:6.3710967289296008] [-5.638701896348139:7.0731943743674837] [2:1889445] none [0:1] [0:1] [0:1] [0:1] [0:1] [0:1] [0:1] [0:1] [0:1] [0:1] [0:1] [0:1] [0:1] [0:1]
tree_sizes=3501 3509 3546 3568 3564 3586 3532 3559 3559 3582 3582 3586 3611 3562 3580 3557 3576 3558 3565 3598 3557 3573 3605 3593 3564 3590 3598 3571 3625 3585 3554 3631 3561 3552 3572 3591 3557 3584 3537 3554 3587 3540 3575 3555 3530 3495 3584 3552 3577 3576 3543 3576 3492 3616 3541 3535 3482 3525 3594 3574 3545 3511 3527 3539 3512 3554 3567 3499 3566 3544 3494 3538 3563 3522 3579 3504 3527 3527 3568 3555 3560 3605 3564 3571 3569 3572 3551 3495 3576 3521 3500 3505 3567 3516 3577 3556 3520 3549 3528 3517 3511 3568 3545 3586 3522 3486 3519 3494 3537 3535 3522 3569 3512 3540 3544 3519 3546 3583 3557 3572 3553 3486 3553 3561 3524 3516 3586 3526 3540 3531 3553 3547 3516 3542 3539 3600 3545 3499 3525 3599 3577 3555 3594 3519 3521 3534 3597 3538 3542 3538 3530 3547 3547 3509 3514 3589 3514 3544 3532 3521 3504 3541 3509 3520 3541 3573 3536 3594 3514 3516 3522 3483 3506 3484 3497 3514 3538 3565 3546 3493 3557 3532 3596 3543 3536 3534 3552 3605 3530 3500 3541 3549 3506 3576 3551 3552 3517 3514 3527 3532 3544 3522 3535 3580 3573 3577 3512 3508 3593 3511 3541 3543 3536 3536 3595 3549 3535 3542 3535 3519 3522 3583 3532 3558 3509 3516 3517 3521 3470 3553 3541 3550 3527 3478 3510 3535 3494 3581 3550 3511 3534 3534 3493 3539 3513 3523 3607 3541 3553 3548 3554 3495 3584 3528 3583 3510 3533 3493 3540 3530 3532 3494 3541 3513 3576 3595 3572 3532 3553 3550 3545 3553 3542 3560 3529 3593 3550 3540 3616 3501 3517 3566 3512 3550 3506 3514 3518 3488 3500 3513 3514 3479 3605 3549 3542 3517 3539 3558 3542 3504 3536 3550 3546 3544 3584 3541 3539 3527 3565 3483 3511 3547 3554 3493 3574 3568 3526 3567 3548 3542 3550 3543 3507 3578 3516 3552 3549 3555 3541 3540 3500 3508 3493 3518 3546 3549 3528 3554 3524 3565 3531 3555 3571 3598 3536 3551 3577 3535 3515 3522 3540 3502 3572 3537 3529 3495 3521 3547 3485 3530 3527 3541 3512 3529 3552 3533 3522 3499 3552 3527 3484 3499 3535 3585 3557 3507 3545 3520 3550 3535 3512 3564 3544 3537 3537 3541 3499 3552 3515 3518 3558 3530 3513 3531 3503 3533 3539 3537 3553 3568 3527 3503 3538 3570 3531 3516 3523 3506 3508 3522 3506 3538 3544 3536 3509 3538 3518 3535 3562 3560 3542 3510 3538 3539 3527 3495 3516 3518 3490 3520 3549 3567 3514 3550 3551 3514 3504 3525 3545 3537 3519 3538 3561 3534 3551 3548 3512 3508 3554 3562 3538 3557 3532 3547 3537 3541 3534 3471 3545 3492 3556 3515 3486 3533 3524 3514 3533 3504 3525 3498 3535 3546 3567 3559 3562 3515 3527 3508 3539 3509 3548 3537 3526 3527 3513 3496 3525 3512 3540 3542 3529 3474 3537 3497 3573 3501 3519 3507 3519 3505 3555 3533 3515 3590 3595 3510 3582 3500 3543 3530 3530 3480 3532 3504 3528 3600 3542 3518 3494 3558 3522 3502 3554 3534 3560 3561 3542 3498 3494 3539 3560 3519 3508 3541 3555 3517 3547 3526 3524 3518 3551 3512 3488 3497 3486 3549 3542 3574 3507 3545 3601 3515 3531 3512 3540 3525 3548 3535 3563 3534 3498 3547 3548 3494 3537 3515 3523 3514 3561 3540 3569 3574 3499 3525 3540 3526 3536 3520 3523 3533 3545 3487 3551 3520 3505 3535 3500 3551 3546 3544 3518 3514 3507 3547 3534 3572 3535 3575 3543 3533 3531 3562 3563 3565 3535 3575 3540 3551 3536 3540 3488 3532 3542 3534 3503 3494 3547 3550 3499 3575 3549 3546 3552 3560 3575 3511 3525 3519 3552 3537 3474 3543 3532 3566 3531 3506 3511 3528 3546 3567 3510 3527 3541 3543 3542 3543 3557 3536 3519 3514 3525 3574 3541 3530 3501 3530 3524 3516 3555 3541 3590 3502 3535 3516 3537 3523 3506 3532 3520 3536 3515 3498 3553 3524 3523 3534 3519 3562 3505 3526 3557 3546 3534 3517 3489 3540 3530 3511 3554 3504 3516 3518 3559 3481 3524 3539 3538 3526 3579 3529 3550 3538 3540 3548 3516 3508 3496 3512 3554 3557 3515 3501 3532 3532 3534 3552 3562 3510 3542 3504 3511 3588 3539 3478 3536 3540 3507 3514 3545 3463 3555 3559 3555 3482 3573 3491 3526 3518 3593 3500 3533 3598 3545 3535 3525 3503 3497 3541 3523 3516 3519 3532 3539 3514 3502 3526 3500 3516 3551 3545 3575 3576 3532 3535 3574 3563 3549 3510 3531 3493 3519 3532 3539 3529 3523 3537 3554 3516 3524 3543 3496 3523 3548 3543 3524 3486 3536 3527 3544 3539 3506 3524 3516 3530 3549 3518 3521 3574 3536 3523 3541 3543 3533 3572 3554 3501 3481 3531 3518 3506 3544 3553 3529 3536 3520 3509 3530 3541 3533 3530 3547 3502 3481 3545 3512 3565 3518 3528 3569 3541 3550 3509 3519 3501 3549 3524 3520 3530 3540 3542 3516 3499 3544 3519 3513 3502 3551 3530 3476 3550 3533 3522 3509 3561 3547 3500 3533 3543 3547 3570 3532 3552 3507 3569 3518 3512 3495 3542 3559 3547 3530 3565 3530 3576 3522 3568 3504 3515 3504 3530 3522 3530 3512 3562 3523 3543 3545 3540 3553 3510 3626 3540 3565 3533 3595 3544 3557 3501 3474 3560 3516 3482 3553 3558 3522 3556 3521 3581 3535 3551 3527 3562 3574 3522 3574 3516 3516 3552 3529 3518 3505 3518 3530 3513 3504 3520 3514 3534 3533 3578 3545 3536 3518 3524 3575 3497 3521 3505 3508 3541 3548 3557 3505 3556 3546 3504 3523 3473 3541 3565 3526 3534 3508 3543 3500 3530 3524 3582 3565 3493 3529 3536 3548 3511 3557 3574 3548 3536 3538 3528 3532 3543 3517 3547 3570 3572 3546 3491 3495 3535 3554 3569 3586 3498 3495 3534 3531 3517 3500 3514 3547 3537 3543 3541 3575 3530 3537 3526 3527 3522

Tree=0
num_leaves=32
num_cat=0
split_feature=11 26 11 10 10 10 4 13 11 6 4 13 4 13 4 15 12 8 13 11 11 14 13 11 15 14 13 10 16 15 7
split_gain=452.936 157.377 143.886 102.13 77.5787 80.3149 70.4758 68.0772 65.0733 59.984 59.1637 53.1845 117.281 51.0618 53.8017 48.7985 47.559 48.8267 45.682 40.826 40.2134 39.835 40.7677 39.8081 57.755 40.7475 39.2176 42.3655 38.4981 38.3203 35.9902
threshold=1.6685200000000002 1.0000000180025095e-35 2.2668850000000007 -0.79583499999999985 -0.90541499999999997 0.82487500000000014 76.435270000000017 244.45396200000002 3.3973000000000004 16.574090000000002 82.810880000000012 249.97159250000001 81.381515000000022 260.90712800000006 85.879840000000016 1.7904964025187586 2567.6771780000004 6.0994850000000005 129.76272150000003 1.2448750000000002 2.2668850000000007 1.5123370643009169 33.352008000000005 1.4861450000000003 1.2903890806234457 3.1040616137821897 42.259096000000007 -0.034374999999999996 637342.50000000012 0.46100136376133755 1.4715200000000002
decision_type=8 2 10 10 8 10 10 10 10 10 10 10 10 8 10 10 10 10 8 10 10 10 8 10 10 10 10 10 2 10 10
left_child=3 4 13 23 29 8 26 18 9 11 -9 21 -13 -3 -15 20 17 -12 -8 -20 -14 -6 30 -1 -25 -26 27 -5 -22 -2 -23
right_child=1 2 -4 6 5 -7 7 10 -10 -11 16 12 15 14 -16 -17 -18 -19 19 -21 28 22 -24 24 25 -27 -28 -29 -30 -31 -32
leaf_value=-1.1580948762638987 -1.0617919138920313 -1.098436289624779 -1.0590298712507042 -1.051376590426333 -1.0438474314850719 -1.0660003534385463 -1.092632454557815 -1.0843033535228515 -1.0678053258293334 -1.0802963380486486 -1.1334905365528869 -1.042403628204315 -1.0926902965335414 -1.0749054073570898 -1.209868881060441 -1.2049584341460913 -0.95136945126948258 -1.3021857814625633 -1.1043440963489553 -1.0605215608733267 -1.0944298543946458 -1.3392845883630362 -1.0524407992156117 -1.076641163819807 -1.2615029563427305 -0.95942695748900753 -1.0369410002056767 -1.1988272645667546 -1.0479387119531967 -1.0941951101481038 -1.0991438492096186
leaf_weight=236.4524767100811 2009.5323974937201 756.3518233448267 1769.4491435587406 48.040089577436447 26727.252785474062 2739.1537147462368 1126.9794997423887 506.71555377542973 1631.5551057308912 548.37256069481373 411.44764877855778 2162.3705787211657 755.1439368724823 44.65956337749958 91.233583897352219 30.136606425046921 13.914158210158346 18.186274170875549 251.27764670550823 1528.416999489069 252.1252060085535 6.7293261587619773 4550.1630589962006 188.80977889895439 30.359503865242004 5.3284890353679648 515.4836488366127 33.62461556494236 639.15160439908504 454.21654969453812 108.16794113814831
leaf_count=1037 7466 3003 6540 175 95961 10257 4429 1962 6130 2108 1734 7742 2968 170 433 142 41 98 1008 5665 994 38 16609 721 155 16 1826 157 2313 1790 430
internal_value=-1.05505 -1.0519 -1.07566 -1.0841 -1.05041 -1.04935 -1.07943 -1.08441 -1.04813 -1.04723 -1.10782 -1.04672 -1.05791 -1.10865 -1.16551 -1.07791 -1.13469 -1.14063 -1.07676 -1.06671 -1.07558 -1.04535 -1.05394 -1.12924 -1.09886 -1.2164 -1.04722 -1.11209 -1.06109 -1.06777 -1.11321
internal_weight=50190.8 45275.8 2661.69 4915.04 42614.1 40150.3 4454.09 3856.94 37411.2 35779.6 950.264 35231.2 3838.93 892.245 135.893 1676.56 443.548 429.634 2906.67 1779.69 1646.42 31392.3 4665.06 460.95 224.498 35.688 597.148 81.6647 891.277 2463.75 114.897
internal_count=184118 165094 10146 19024 154948 145692 17095 14937 135435 129305 3835 127197 14159 3606 603 6417 1873 1832 11102 6673 6275 113038 17077 1929 892 171 2158 332 3307 9256 468
is_linear=0
shrinkage=1


Tree=1
num_leaves=32
num_cat=0
split_feature=5 15 26 15 13 5 9 3 15 6 12 15 9 16 13 9 8 13 2 13 7 1 12 7 12 9 16 6 9 8 9
split_gain=265.618 203.433 110.07 80.8589 51.244 46.1604 45.637 40.1354 40.3929 30.4789 31.1024 29.9607 30.982 28.4028 28.0624 27.7436 31.4933 29.2833 28.3553 26.9216 31.8867 26.2647 26.1769 26.0844 26.4128 26.6102 25.9691 29.3318 25.37 28.4801 25.8106
threshold=-20.487984999999998 0.59228907276403897 1.0000000180025095e-35 -0.71980484200591055 221.13359300000002 -21.842074999999998 4.7199550000000015 1.0000000180025095e-35 0.34743081936638559 -16.202369999999998 2346.6393385000006 0.63997608532161288 6.3412400000000009 1853815.0000000002 218.58035200000003 6.3761750000000008 4.5377250000000009 86.186264000000008 1.5000000000000002 232.05497900000003 1.9003500000000002 1.5000000000000002 2770.4858000000008 -2.4464149999999996 2251.4038210000003 6.979445000000001 1746003.0000000002 -20.250664999999998 5.2965050000000007 6.1731550000000004 5.242325000000001
decision_type=8 10 2 8 8 10 10 2 10 10 10 10 10 2 10 8 10 10 2 10 10 2 10 10 10 10 2 10 8 10 10
left_child=1 15 6 22 14 11 -3 26 -9 10 21 12 -4 -11 -5 18 -17 -18 -1 20 -10 -8 23 24 25 -2 -6 -28 29 30 -25
right_child=3 2 5 4 7 -7 9 8 19 13 -12 -13 -14 -15 -16 16 17 -19 -20 -21 -22 -23 -24 28 -26 -27 27 -29 -30 -31 -32
leaf_value=0.13053665899507785 0.13319466840325317 0.13983650013539833 0.15380257554960863 0.1403196240004603 0.14419335845657433 0.14349800761672388 0.061185857098009923 0.13070091426606328 0.10083327908518969 0.11002550171904901 0.14882381564349592 0.045967282674725968 -0.13454921626027128 0.15711274920005994 0.15838155972023371 0.15354767897073385 0.15565663765353566 0.11059491514248389 0.12277468102401105 0.074769383733083408 0.15057254001469242 0.10847842843194297 0.28333474475481785 0.11802387888201869 0.19219112544896177 -0.13602338681181236 0.3298931191769649 0.081700308039522981 0.12418465407459846 0.0093166419027423154 0.036722551349612796
leaf_weight=12252.767149850726 125.40159204602242 523.02022722363472 44.478326886892319 13001.239410921931 1508.8665681034327 66.700677409768105 328.49174426496029 1432.9836661070585 495.74197961390018 6832.5870497375727 72.503545969724655 444.0202974230051 4.1340051740407935 132.55879452824593 936.04696650803089 215.86162209510803 156.20984160900116 2328.8469925820827 7830.7522196024656 241.80978268384933 177.74245202541351 187.10190193355083 10.459786325693129 256.39816100895405 111.06014175713062 3.8410590738058081 5.0695369988679877 103.84830483794212 4367.7836017012596 34.87614281475544 46.886356264352798
leaf_count=41225 420 1739 148 42668 4923 225 1289 4801 1766 24118 240 1823 22 425 2953 697 498 8170 26818 907 571 673 24 884 326 20 10 384 14859 147 188
internal_value=0.127242 0.12123 0.108061 0.135504 0.138657 0.0648388 0.111055 0.128553 0.12014 0.109062 0.0870363 0.0541886 0.129281 0.110922 0.141533 0.126221 0.116634 0.113427 0.12751 0.103606 0.11396 0.0783477 0.124116 0.12378 0.156158 0.125194 0.140764 0.0932523 0.122126 0.0955399 0.105455
internal_weight=54280.1 31420 8635.6 22860.1 17903.3 559.333 8076.26 3966.06 2348.28 7553.24 588.097 492.633 48.6123 6965.15 13937.3 22784.4 2700.92 2485.06 20083.5 915.294 673.484 515.594 4956.71 4946.25 240.303 129.243 1617.78 108.918 4705.94 338.161 303.285
internal_count=183961 108110 30702 75851 58983 2218 28484 13362 8045 26745 2202 1993 170 24543 45621 77408 9365 8668 68043 3244 2337 1962 16868 16844 766 440 5317 394 16078 1219 1072
is_linear=0
shrinkage=0.100752


Tree=2
num_leaves=32
num_cat=0
split_feature=5 15 10 9 10 15 14 10 13 8 10 6 14 10 26 6 8 13 10 12 12 16 16 6 9 9 7 12 15 14 16
split_gain=167.044 132.872 75.5384 62.5871 50.9962 42.8698 41.8166 39.2918 37.8525 36.6365 36.1741 35.8329 35.626 31.093 29.737 29.614 32.4719 29.3059 29.2266 29.6242 28.6038 35.2836 29.9603 28.4695 33.1623 31.0087 28.1583 39.9115 36.344 36.2666 29.8425
threshold=-20.774984999999997 0.89681964797825098 -0.44406499999999999 6.0196850000000008 0.80773000000000017 -0.69561859359030354 2.6598366848283965 -0.88938499999999987 227.84382150000002 5.8148550000000006 0.60114500000000015 -11.514409999999998 1.8070682686955053 -1.2918999999999998 1.0000000180025095e-35 -15.364214999999998 5.9518050000000011 36.555982500000006 -1.2918999999999998 1373.5810920000001 1818.8363560000003 229963.50000000003 771400.00000000012 -0.32505999999999996 5.2322050000000013 6.6019300000000003 1.8528150000000003 1927.5530400000002 1.2169695683975157 0.24197270918013494 111515.50000000001
decision_type=8 10 10 10 10 8 10 10 10 10 10 10 10 10 2 10 10 10 10 10 10 2 2 10 10 8 10 10 10 10 2
left_child=1 2 18 6 15 9 7 -3 10 20 12 26 -7 -5 -9 -4 -17 -8 19 -1 21 -2 -22 24 -20 -25 27 -10 29 -29 -28
right_child=5 3 4 13 -6 8 17 14 11 -11 -12 -13 -14 -15 -16 16 -18 -19 23 -21 22 -23 -24 25 -26 -27 30 28 -30 -31 -32
leaf_value=0.18452507480917696 0.0020062302921605968 0.05077866444669777 0.10062594173279744 -0.13772352851739161 0.093681689372780888 0.12067718514064922 -0.011352303927239368 0.096861436537817411 0.14588283558509663 0.095417850790769324 0.10542721108809024 -0.14027313784221684 0.096274144467340117 0.071499266931343924 0.058010694852778308 0.1149351213884926 0.10340202052893614 0.14250728690584361 0.11712389126581785 0.063791720744031735 0.12165511697216551 0.16819436837061924 0.10240395806325936 0.10456173673980308 0.081828987225072258 0.059680646598634431 0.044850372522424492 0.1009523127934258 0.034305355241927647 0.038001605746576322 0.12291581773364285
leaf_weight=21.833069697022438 14.208567336201666 214.9050103276968 2415.4795995652676 7.2497375160455695 1910.3877584934235 14411.29178917408 13.24880976974964 4035.4651999175549 144.90257889032364 2016.5954729169607 2064.6892671883106 6.0681058913469306 633.99423891305923 1325.530201613903 210.41685691475868 12355.218299299479 3099.8865716308355 244.01367957890034 328.71089386940002 374.39769475162029 1409.1857355386019 148.55900347232819 1964.7718121707439 4358.645920664072 1518.8350649625063 162.07703445851803 52.701894670724869 1038.9239897578955 108.51313284039497 102.02220866084099 874.97631070017815
leaf_count=59 56 816 7957 37 6371 44092 55 13436 426 6637 6567 30 2060 4692 814 38873 9984 738 1032 1329 4358 412 6339 14083 5160 577 191 3369 408 376 2695
internal_value=0.107865 0.103114 0.106185 0.0896405 0.109328 0.114062 0.0950866 0.0928087 0.116293 0.106255 0.117933 0.10424 0.119649 0.0703612 0.0949361 0.111 0.112622 0.134584 0.0969942 0.0704444 0.112435 0.153687 0.110445 0.0986461 0.0881086 0.102953 0.104879 0.0958289 0.090024 0.0953233 0.118481
internal_weight=57587.7 32596.3 26545.5 6050.83 19781 24991.4 4718.05 4460.79 19438.1 5553.32 17110 2328.11 15045.3 1332.78 4245.88 17870.6 15455.1 257.262 6764.5 396.231 3536.73 162.768 3373.96 6368.27 1847.55 4520.72 2322.04 1394.36 1249.46 1140.95 927.678
internal_count=184029 106013 85425 20588 63185 78016 15859 15066 60214 17802 52719 7495 46152 4729 14250 56814 48857 793 22240 1388 11165 468 10697 20852 6192 14660 7465 4579 4153 3745 2886
is_linear=0
shrinkage=0.100752


Tree=3
num_leaves=32
num_cat=0
split_feature=11 4 5 4 4 4 5 11 12 5 11 4 5 13 7 16 7 8 6 15 5 5 16 15 11 9 5 9 5 11 16
split_gain=264.014 52.9692 75.2917 54.3287 51.7515 47.3829 130.771 63.7573 46.7109 43.1013 54.249 39.1543 35.5632 34.2433 35.1676 36.729 33.9366 33.6062 32.6896 32.0362 31.5912 31.5498 36.9512 34.6542 30.6899 30.4932 30.4914 30.2093 29.6406 33.4616 31.0002
threshold=1.6923950000000001 76.718465000000023 -18.155204999999999 91.414670000000015 84.299725000000009 89.576760000000021 -21.260714999999994 2.0781450000000006 1947.4401655000004 -22.046284999999997 2.0781450000000006 83.509315000000015 -38.915969999999994 61.825329000000004 -0.53089999999999993 1001513.0000000001 -2.6120999999999994 6.2994150000000007 -16.202369999999998 -1.318939025709376 -31.859824999999997 -25.396994999999997 1289250.5000000002 -0.61374267802828653 2.7311750000000008 6.8933000000000009 -39.492114999999991 5.5023400000000011 -17.426394999999996 1.9867750000000002 55314.500000000007
decision_type=8 10 10 10 10 10 10 10 10 8 10 10 10 10 10 2 10 10 10 10 10 10 2 10 10 10 10 10 10 10 2
left_child=1 12 4 -4 -3 9 7 8 -7 10 11 13 26 -2 15 -15 25 -9 -5 -8 -13 23 -23 -6 -18 -11 -1 -14 29 30 -21
right_child=5 2 3 18 21 6 19 17 -10 16 -12 20 27 14 -16 -17 24 -19 -20 28 -22 22 -24 -25 -26 -27 -28 -29 -30 -31 -32
leaf_value=0.06288721040979571 0.0716702513759679 0.070128843396986704 0.10524905227658964 0.14064972800594061 0.13274578268159876 -0.051524244788742658 0.075123787285828025 0.078456380577421644 0.046492323502006994 0.13115031795407445 0.095902159761270644 0.031248226164422421 0.08211793132668295 0.061510407224036147 0.10086121526109273 0.097006600798160314 0.10269898193211649 0.0070862648774085261 0.039990676869075432 0.21456962867354415 0.076486846417478202 0.042069267766093793 0.083556755415801431 0.019903344631018834 0.093372131529682392 0.0092493178547634735 -0.08514529154192875 0.12050779143358729 0.098291251977425428 0.090308800944713941 0.051001795604117682
leaf_weight=73.890923395752907 856.11268766224384 2731.0238880813122 797.68464814126492 37.884417563676834 29.310587659478188 55.725088998675346 889.05820074677467 1913.3397035449743 431.72589404881001 475.79664935171604 18250.110661566257 175.39074370265007 427.3232489079237 575.42086862027645 2483.7325247526169 609.16500952839851 9205.1951456815004 69.401461541652679 241.6499018073082 12.194336757063864 1470.026054084301 583.55689740180969 347.80804423987865 480.70233996212482 5861.7175731658936 21.784035906195641 17.462456047534943 405.53938807547092 7701.9295753985643 2519.0649229735136 331.65845546126366
leaf_count=252 2763 9069 2354 105 84 235 2834 6109 1518 1306 55509 624 1354 1892 7487 1848 27111 259 821 27 4763 2061 1118 1810 17718 79 77 1186 22869 7681 1108
internal_value=0.0917591 0.0720237 0.068108 0.0918548 0.0619771 0.0940193 0.0889575 0.0679325 0.0352871 0.0957819 0.0931411 0.0849739 0.0942653 0.0898141 0.0940485 0.0797641 0.0999254 0.0759582 0.0536327 0.0934919 0.0716647 0.0465318 0.0575623 0.0263884 0.0990704 0.125814 0.0345904 0.100811 0.0950376 0.0862845 0.0568025
internal_weight=60082.4 6173.84 5249.62 1077.22 4172.4 53908.5 13924.1 2470.19 487.451 39984.5 24420 6169.85 924.216 4524.43 3668.32 1184.59 15564.5 1982.74 279.534 11453.9 1645.42 1441.38 931.365 510.013 15066.9 497.581 91.3534 832.863 10564.8 2862.92 343.853
internal_count=184031 20291 17422 3280 14142 163740 42640 8121 1753 121100 74886 19377 2869 13990 11227 3740 46214 6368 926 34519 5387 5073 3179 1894 44829 1385 329 2540 31685 8816 1135
is_linear=0
shrinkage=0.100752


Tree=4
num_leaves=32
num_cat=0
split_feature=11 5 4 11 13 6 10 4 5 9 15 10 15 9 6 8 5 14 4 8 11 15 11 5 4 13 9 6 8 15 14
split_gain=192.059 50.998 145.99 135.279 55.9166 52.057 47.2966 42.0166 45.5166 43.9972 41.2327 32.0478 33.4816 31.7147 32.1214 31.6598 37.2967 33.1844 31.2814 33.5662 30.8259 30.756 30.428 31.0552 30.4194 38.5158 32.5358 32.1545 31.1763 30.0339 33.0725
threshold=1.5242750000000003 -19.195894999999997 82.566830000000024 2.2612150000000004 258.75401250000004 -4.4637499999999992 -0.59934999999999994 88.412960000000012 -24.861134999999994 5.1787150000000013 1.4338798417167922 -0.5462499999999999 1.3179307962955378 5.9841000000000006 17.600690000000004 5.7776950000000005 -25.075744999999994 2.9699233308758983 90.26127000000001 6.0994850000000005 3.4525000000000006 0.14656490070251585 3.2238900000000004 -30.947814999999995 79.071405000000013 243.80118200000001 6.7723650000000006 -14.079629999999998 6.0186550000000008 1.1940402406192379 -0.71615047050348868
decision_type=10 10 10 10 10 10 10 10 10 10 10 10 10 10 10 8 10 10 10 10 10 10 10 10 10 10 10 10 10 10 10
left_child=6 2 22 4 7 29 15 8 9 -4 -11 12 -5 14 -10 16 17 -1 -13 -20 -3 -7 -2 -24 28 27 -27 -26 -8 -6 -31
right_child=1 20 3 11 5 21 24 -9 13 10 -12 18 -14 -15 -16 -17 -18 -19 19 -21 -22 -23 23 -25 25 26 -28 -29 -30 30 -32
leaf_value=0.015274694783417848 0.086540320229995069 0.086294117018291649 0.09195830085540474 0.068221558462719961 0.036195666201523556 0.15706698005892478 0.088234697231485248 0.052499772983841238 0.094146657255086377 0.057127214338477804 -0.007444297542968264 0.084646072854308127 -0.094847201847830784 0.066488866957502807 -0.027487199574163942 0.00026552012398624103 0.10300827195912106 0.11119940782669199 0.074582764910169602 0.029438152572886681 0.069461148054170002 0.034116462759248664 0.088725224083897117 0.04952444453993482 0.1014727463532592 0.037430906631695522 -0.11902339031223602 0.058848927160144754 0.037029155406329978 0.062283174029546091 -0.055057496977428413
leaf_weight=234.27232827246189 17382.691638484597 21012.139316946268 356.52203269302845 1728.802817940712 564.63779440522194 53.229687169194221 679.18852096796036 1905.4406408816576 1167.3415522426367 1546.6878006011248 107.35227161645889 7769.8552383631468 12.876446694135664 863.97409577667713 22.46321165561676 211.89681166410446 96.380626946687698 43.388514444231987 1611.4887918382883 186.53827013075352 1165.6009413152933 33.745894208550453 367.07879893481731 465.01255530118942 206.00129435956478 541.64164693653584 13.837256371974943 1404.8539646267891 146.7819205224514 34.766464695334435 81.63442450761795
leaf_count=851 50711 60099 1041 5288 1964 134 2021 6207 3367 4908 401 22666 55 2667 85 792 287 127 4869 631 3578 116 1065 1477 597 1906 64 4499 495 121 349
internal_value=0.0802163 0.0816036 0.079276 0.0728537 0.0615524 0.0359631 0.0575577 0.0648445 0.070632 0.0598559 0.0529363 0.0795865 0.067016 0.0811813 0.0918502 0.0313813 0.0490085 0.0302643 0.0818748 0.0698992 0.0854094 0.109363 0.0856394 0.0668179 0.0626835 0.0564109 0.0335336 0.0642998 0.079135 0.0265891 -0.0200103
internal_weight=62018.1 58439.9 36262.1 18047.4 6737.8 768.014 3578.24 5969.78 4064.34 2010.56 1654.04 11309.6 1741.68 2053.78 1189.8 585.938 374.041 277.661 9567.88 1798.03 22177.7 86.9756 18214.8 832.091 2992.3 2166.33 555.479 1610.86 825.97 681.039 116.401
internal_count=183438 171799 108122 54869 21360 2684 11639 18676 12469 6350 5309 33509 5343 6119 3452 2057 1265 978 28166 5500 63677 250 53253 2542 9582 7066 1970 5096 2516 2434 470
is_linear=0
shrinkage=0.100752


Tree=5
num_leaves=32
num_cat=0
split_feature=11 10 5 4 13 15 10 10 26 11 8 9 16 4 13 16 9 10 11 9 12 6 11 10 15 12 4 15 13 13 10
split_gain=156.976 69.5936 57.0903 106.124 65.7325 54.284 49.4302 45.5636 48.6189 41.1548 33.7059 41.3835 33.2179 62.2584 33.3108 47.6533 31.8591 28.3412 27.9125 31.5128 27.7955 27.0206 26.2309 26.0896 39.7129 25.671 25.3092 25.0644 24.5141 29.0572 23.1358
threshold=1.6923950000000001 -0.76965499999999987 -20.678889999999999 88.715865000000022 271.29099300000007 0.31846943680350798 -0.98920499999999989 0.53641500000000009 1.0000000180025095e-35 3.4525000000000006 5.4720650000000015 6.4650150000000002 912990.50000000012 81.299760000000006 259.82874900000007 718339.50000000012 6.1389450000000005 -0.29191499999999998 1.9262550000000003 5.320895000000001 2427.0022295000003 -19.430429999999998 1.7275650000000002 -0.52122999999999997 0.37749872444680538 2468.7731065000003 77.000290000000021 -0.59154952046917131 215.64265600000002 213.20284750000005 1.0417350000000003
decision_type=8 10 8 10 8 10 10 10 2 10 10 10 2 10 10 2 8 10 10 10 10 10 10 10 10 10 10 10 10 10 10
left_child=1 -1 3 6 5 -5 -2 8 26 -4 11 -11 13 18 23 -16 17 -7 19 -8 -6 -10 -19 24 -15 28 -3 -17 29 -12 -25
right_child=2 7 9 4 20 16 12 -9 21 10 25 -13 -14 14 15 27 -18 22 -20 -21 -22 -23 -24 30 -26 -27 -28 -29 -30 -31 -32
leaf_value=0.023744532046675274 0.052854042146437616 0.080742764304035708 0.075977928898135746 0.064235401226348507 -0.049571853828231829 0.015244017262227834 0.083021332017720037 0.036980879844171873 0.099186304120063351 -0.035916852954365169 0.061946042005069889 0.093293832679013713 0.075359981945673046 0.058041561344387614 0.020662449467925472 0.14162030558114327 0.014288308610196084 -0.077225327886510958 0.077595978013985725 0.043633025217729542 0.13164894942175678 0.00030465593227470457 0.059089258065769791 0.067714436141572104 0.0042965622643778168 -0.0099081372228001716 0.06104225157975756 0.055760003408062017 0.09249143974469573 -0.018624640576349952 0.027697591671204488
leaf_weight=647.44114491343498 1451.1800285577774 791.64425195753574 24684.146758198738 2569.6317672878504 82.377295926213264 207.57847793400288 328.43516893684864 851.35141177475452 33.125059515237808 78.362078368663788 815.30053801834583 37.062023237347603 13699.588324591517 676.99686187505722 433.05094394087791 53.80468975007534 369.94143925607204 14.578993171453474 5506.1395248919725 553.94297021627426 9.5918229669332487 183.18972317874432 837.90427131950855 4083.6119311898947 175.80169098079205 47.526998400688171 4040.8779415488243 96.255339488387108 264.92677482962608 48.118521004915237 152.12203226983547
leaf_count=2244 4444 2244 68699 7640 326 714 919 2776 101 287 2436 102 38918 2023 1442 129 1275 61 15483 1705 25 683 2609 11850 602 166 12389 296 735 171 491
internal_value=0.0698795 0.0551012 0.0715689 0.0686713 0.0535428 0.0554793 0.0709461 0.058542 0.0621777 0.0750607 0.0575268 0.00557196 0.0719654 0.0681093 0.0604264 0.0376171 0.039745 0.0486289 0.07493 0.058294 -0.0306716 0.0154468 0.056758 0.0630402 0.0469622 0.0626267 0.0642695 0.0865456 0.0656819 0.0574558 0.0662773
internal_weight=63825.6 6547.63 57278 31302.5 4091.6 3999.63 27210.9 5900.19 5048.84 25975.4 1291.3 115.424 25759.7 12060.2 5671.64 583.111 1430 1060.06 6388.52 882.378 91.9691 216.315 852.483 5088.53 852.799 1175.87 4832.52 150.06 1128.35 863.419 4235.73
internal_count=183985 20437 163548 90952 12650 12299 78302 18193 15417 72596 3897 389 73858 34940 16833 1867 4659 3384 18107 2624 351 784 2670 14966 2625 3508 14633 425 3342 2607 12341
is_linear=0
shrinkage=0.100752


Tree=6
num_leaves=32
num_cat=0
split_feature=5 4 15 5 5 10 4 15 4 5 4 9 13 16 8 10 16 9 14 5 7 7 12 8 5 12 4 8 5 5 10
split_gain=81.2444 82.4672 72.9701 44.4302 38.428 36.5048 37.7914 36.7966 34.4056 39.9955 32.4025 30.9549 30.6052 26.216 41.2194 25.7808 24.6572 24.9229 24.3567 24.0818 23.5606 38.8434 26.9995 25.8032 23.44 23.0256 22.7389 22.4965 22.0729 22.043 21.5899
threshold=-20.678889999999999 87.847520000000017 0.63997608532161288 -30.947814999999995 -23.392144999999996 -0.9242499999999999 82.898790000000005 0.89681964797825098 76.282555000000016 -36.843434999999992 90.314115000000015 6.0626900000000008 96.16480300000002 1839770.5000000002 5.5604350000000009 1.0762900000000002 1738915.5000000002 4.4232850000000008 -2.0264209286050923 -23.911224999999998 -1.682885 -2.1900199999999996 1445.2538405000003 6.1592550000000008 -41.110634999999995 1642.6046145000003 88.665835000000015 6.6954100000000007 -24.115789999999997 -24.967029999999998 -0.8094849999999999
decision_type=10 8 8 10 10 10 10 10 10 10 10 8 10 2 10 10 2 10 10 8 10 10 10 10 10 10 10 10 10 10 10
left_child=1 5 3 -3 13 6 20 15 9 30 18 12 -5 19 -15 24 17 -17 -2 28 21 22 -1 -23 -7 -13 -6 -28 -4 -22 -9
right_child=10 2 4 11 26 7 -8 8 -10 -11 -12 25 -14 14 -16 16 -18 -19 -20 -21 29 23 -24 -25 -26 -27 27 -29 -30 -31 -32
leaf_value=0.16229180920453079 0.082670498197724013 -0.010560499207499225 0.012895059862005703 -0.058627868057194193 0.080447231076815326 0.031100216320506802 0.024418881517886206 0.14712920740703234 0.048589926227915962 0.076578125918478734 0.060861948604583715 -0.096571172198942914 0.063219531805344661 -0.074550044170156315 0.1785875118346725 0.20922087475919432 0.10409719572468253 0.033262189717398243 0.067058948051168174 -0.03639623889413849 0.056646595675756861 -0.03088337373655518 0.04502767517538242 0.11573132517742009 0.063878451389920154 0.045379558945936704 0.038982208872889973 -0.14723903663033569 0.081636188038118743 0.097514368039056873 0.037986221962383687
leaf_weight=22.317518427968025 1078.6034374088049 105.41203692555428 710.82166919112206 21.092678844928741 156.70598377287388 223.65316580235958 532.89222320914268 19.138698697090149 3818.4393021166325 1127.8740599602461 10078.263913974166 11.688284754753111 2636.7443621009588 9.2107091844081896 22.433571964502335 8.2961391657590848 59.668901115655899 542.50487884879112 17058.123184889555 94.6852647960186 1153.6109665036201 107.12214338779449 186.40257279574871 13.748951226472853 22585.267159149051 1528.7743239104748 499.52139633893967 6.673103690147399 50.806115597486496 151.57624503970146 475.29110971093178
leaf_count=49 2815 373 2495 79 438 678 1721 46 11600 3085 28099 47 7563 38 49 15 153 1673 46575 355 3426 384 567 35 63322 4597 1599 31 148 406 1443
internal_value=0.0613727 0.0582596 0.0472919 0.0540441 0.0285543 0.060329 0.0477193 0.0612762 0.0538122 0.0661041 0.0654422 0.0556662 0.0622525 0.0148512 0.104907 0.0630102 0.042577 0.0359125 0.0679874 0.0115233 0.0553146 0.0312451 0.0575662 -0.0142061 0.063557 0.0443025 0.0469097 0.0365273 0.0174806 0.0613927 0.042211
internal_weight=65097.4 36882.4 5854.57 4303.71 1550.86 31027.8 2167.67 28860.1 5440.74 1622.3 28215 4198.3 2657.84 887.957 31.6443 23419.4 610.47 550.801 18136.7 856.313 1634.78 329.591 208.72 120.871 22808.9 1540.46 662.9 506.195 761.628 1305.19 494.43
internal_count=183904 106415 17812 12659 5153 88603 6588 82015 16174 4574 77489 12286 7642 3085 87 65841 1841 1688 49390 2998 4867 1035 616 419 64000 4644 2068 1630 2643 3832 1489
is_linear=0
shrinkage=0.100752


Tree=7
num_leaves=32
num_cat=0
split_feature=11 10 5 9 26 11 9 13 11 5 13 12 11 5 13 14 8 5 14 11 12 5 13 9 15 13 10 15 13 11 14
split_gain=100.268 48.7215 26.2965 27.1296 26.2072 43.3746 37.2633 28.4068 25.7628 25.1731 23.472 22.8245 32.8762 30.9061 21.9455 22.5043 21.7976 28.9212 27.7544 20.8952 20.2411 45.4161 25.073 23.9724 22.7509 22.5439 22.2097 33.7939 27.7173 21.9444 20.2198
threshold=1.6685200000000002 -0.79583499999999985 -18.665389999999999 6.4043800000000006 1.0000000180025095e-35 2.2612150000000004 4.9263750000000011 258.75401250000004 3.5216900000000004 -42.408974999999991 287.27020650000003 1869.4817870000004 2.2244350000000002 -21.740979999999997 250.73881200000002 0.71347050897558184 4.6480450000000006 -35.301659999999991 0.38411280025013694 1.3479700000000003 1838.3494070000002 -30.627474999999997 138.6944665 6.7974600000000009 2.143177384604892 51.755923000000003 -1.1395699999999997 -0.2490865495685459 47.191912000000009 2.5262550000000004 -2.3284760998588179
decision_type=8 10 10 8 2 10 10 8 10 8 8 10 10 10 10 10 10 10 10 10 10 8 10 10 10 8 10 10 10 10 10
left_child=1 10 3 16 8 6 -6 11 9 -2 -1 12 13 -8 -5 19 17 -3 -19 -16 21 24 -23 -24 25 -11 27 -22 -29 -27 -4
right_child=4 2 30 14 5 -7 7 -9 -10 20 -12 -13 -14 -15 15 -17 -18 18 -20 -21 26 22 23 -25 -26 29 -28 28 -30 -31 -32
leaf_value=0.0098284566263662308 0.020552530996393807 -0.03438382587658266 -0.013956659153639054 0.030730866381927756 0.12521360409847399 0.055335499511709227 -0.086494396165216286 -0.0092878197680612683 0.043279831735336567 0.077475474971745603 0.099893239066758927 0.039765145013531109 0.17182198459816461 0.063802309713014038 -0.078494507679365208 -0.11794953414115508 0.04279170203042941 0.041958967488530841 0.11514934445881371 0.034829904385335946 0.059271811746244678 0.043501599756351025 0.061325255693985323 0.026517978818382477 -0.059816278418606358 0.016559541423406172 0.058105678563650232 -0.072779339642103674 0.029394098417895809 0.05239527275504325 0.062154379578775294
leaf_weight=541.27354763448238 192.0208919942379 22.628117442131042 36.660999566316605 288.47220668196678 41.101909935474396 2335.574511423707 46.797093376517296 177.91305178403854 1431.9816259294748 106.17214241623878 31.058395445346832 808.44638492166996 8.2082065194845182 19.749797135591507 23.721469968557358 20.611172333359718 4013.3928205221891 88.831758409738541 128.92373339831829 54.374661430716515 598.0364698022604 1355.1779631525278 3668.7973832190037 212.48692812025547 27.104816138744354 540.93121768534184 47658.81332667172 28.71269229054451 439.38090345263481 255.33922570943832 1056.5617224574089
leaf_count=1858 590 82 119 897 103 6552 190 658 4163 278 88 2478 17 55 97 89 12113 269 319 176 1670 3869 9973 632 98 1660 129788 110 1334 708 2891
internal_value=0.0548308 0.0427465 0.0455442 0.0422328 0.0561019 0.0475611 0.0310872 0.0274413 0.0566215 0.0569683 0.0147159 0.03484 -0.0184235 -0.0418893 0.0166997 -0.0243064 0.0445568 0.0740264 0.0852919 0.000407948 0.0570957 0.051657 0.0553001 0.0594197 0.031134 0.0338657 0.057784 0.043402 0.0231268 0.0280509 0.059602
internal_weight=66259.3 6306.51 5734.18 4640.96 59952.7 3437.79 1102.22 1061.11 56515 55083 572.332 883.201 74.7551 66.5469 387.18 98.7073 4253.78 240.384 217.755 78.0961 54891 6166.01 5236.46 3881.28 929.547 902.443 48724.9 1066.13 468.094 796.27 1093.22
internal_count=183924 18998 17052 14042 164926 10053 3501 3398 154873 150710 1946 2740 262 245 1259 362 12783 670 588 273 150120 17218 14474 10605 2744 2646 132902 3114 1444 2368 3010
is_linear=0
shrinkage=0.100752


Tree=8
num_leaves=32
num_cat=0
split_feature=11 10 10 6 11 6 10 9 13 4 5 4 4 8 5 8 10 9 7 4 5 6 7 9 8 21 13 10 8 14 8
split_gain=86.7684 40.503 35.5904 31.1959 29.2846 37.7824 28.5138 27.699 28.9305 35.1061 39.8558 32.5474 29.6852 27.2623 35.5926 30.2931 25.3996 24.9447 27.0726 24.9201 23.0302 22.9359 29.1942 29.8722 22.1836 25.4578 27.3685 26.3255 22.125 22.111 21.8296
threshold=1.5242750000000003 -0.59934999999999994 0.84147500000000008 -9.9733699999999974 1.9262550000000003 -14.186259999999999 -1.5022299999999997 4.9074000000000009 53.921577000000006 78.681420000000017 -19.372494999999997 88.314645000000027 87.121855000000011 5.8661100000000008 -27.075184999999994 5.6518050000000004 0.60114500000000015 6.3078450000000013 2.9056550000000003 88.665835000000015 -34.186354999999992 -17.382689999999997 1.1307800000000003 5.3294450000000007 5.0107050000000006 1.0000000180025095e-35 257.73682850000006 0.39353500000000002 3.2773000000000008 1.720493545083235 6.2523650000000011
decision_type=10 10 10 10 10 10 10 10 8 10 10 10 10 10 10 10 10 8 10 10 10 10 10 10 10 2 10 10 10 8 10
left_child=1 13 4 16 5 17 -7 -8 -9 -10 11 -11 -12 14 15 -1 28 20 29 -4 -2 24 23 -23 25 26 -22 -27 -3 -19 -6
right_child=2 3 19 -5 30 6 7 8 9 10 12 -13 -14 -15 -16 -17 -18 18 -20 -21 21 22 -24 -25 -26 27 -28 -29 -30 -31 -32
leaf_value=-0.017593127179072923 -0.077964702516769138 0.21844341952826696 0.044956889839213615 0.044458766876373873 0.05116984052394833 -0.043079098298907485 0.067167252478518485 0.022680973508555899 0.061890313916096507 0.040167939230523995 0.075021480189043199 0.0082808273662517105 0.047312897670222336 -0.023067712265464526 0.061338177688547074 0.057991233560833473 -0.013325442670890026 0.0046816710298057031 -0.10730587161930007 0.027596342332678086 0.10921514261635082 -0.07521688916428218 0.016270672103551344 0.096334793318305134 0.042343871813956262 0.17512390556154944 -0.048027477425114137 -0.025921265488254758 0.028677114235547755 0.20739821358914595 0.044943964314661237
leaf_weight=210.17335890233517 18.027364358305931 6.2835651338100424 2634.9184558540583 2203.2500609010458 43668.951072469354 35.653562963008881 648.03332267701626 526.43135936558247 1323.3661508709192 2830.4114341139793 531.09588061273098 367.07360951602459 1503.7851193249226 182.43821184337139 159.14413963258266 72.355777472257614 163.2914180457592 215.25312039256096 22.028407752513885 1231.6609197556973 26.55570712685585 11.698114126920698 555.38446179032326 86.428570255637169 304.6445347815752 44.663722887635231 19.477388650178909 7.7601893842220298 835.6696895211935 5.6040361523628226 6577.9288951903582
leaf_count=746 72 11 7381 6382 117824 128 1706 1585 3529 8110 1319 1181 4046 666 465 220 567 693 92 3595 66 43 1718 215 915 92 74 27 2579 11 17956
internal_value=0.0479 0.0331802 0.0487927 0.0377482 0.0494031 0.0441385 0.0468149 0.0472295 0.0454052 0.04723 0.0435221 0.0365073 0.0545447 0.0096963 0.0232299 0.00176405 0.0230404 0.0283627 -0.000797767 0.0394269 0.0349534 0.03688 0.0252217 0.0758834 0.0557805 0.0973559 0.0426831 0.145364 0.0300934 0.00982541 0.0503548
internal_weight=67029.4 3832.61 63196.8 3208.49 59330.3 9083.38 7765.85 7730.2 7082.16 6555.73 5232.37 3197.49 2034.88 624.111 441.673 282.529 1005.24 1317.53 242.886 3866.58 1074.64 1056.61 653.511 98.1267 403.102 98.457 46.0331 52.4239 841.953 220.857 50246.9
internal_count=184014 11636 172378 9539 161402 25622 21604 21476 19770 18185 14656 9291 5365 2097 1431 966 3157 4018 796 10976 3222 3150 1976 258 1174 259 140 119 2590 704 135780
is_linear=0
shrinkage=0.100752


Tree=9
num_leaves=32
num_cat=0
split_feature=11 4 13 11 14 8 10 13 3 10 13 15 11 12 12 16 15 13 10 11 8 15 7 10 6 26 4 12 12 4 12
split_gain=61.1547 34.5716 63.1804 40.5946 34.5161 39.8908 33.7067 36.148 35.1655 33.3275 30.4201 28.2301 29.1591 29.2648 25.8947 25.596 24.3121 30.7623 28.594 34.6958 28.4559 31.617 28.0919 23.7306 35.6249 23.5326 23.3827 30.4749 26.1752 23.2119 26.9746
threshold=1.6923950000000001 89.275850000000005 240.69686850000002 2.4149500000000006 2.6598366848283965 6.2266000000000004 1.0417350000000003 110.75478850000002 1.0000000180025095e-35 -0.79583499999999985 264.68770000000006 -0.054398267356793532 3.1041500000000002 2052.8757575000004 2390.6963065000004 1672869.0000000002 -0.52720303183115547 33.352008000000005 -0.68776499999999985 2.6372100000000005 5.2433450000000006 -0.31496517732667012 3.4916250000000004 -0.21651499999999999 16.164405000000006 1.0000000180025095e-35 93.927020000000013 2584.7538505000007 2222.0070460000002 93.736410000000021 2548.6455150000006
decision_type=8 10 8 10 10 10 10 10 2 10 10 10 10 10 10 2 8 8 10 10 8 10 10 10 10 2 10 10 10 10 10
left_child=9 16 4 10 6 -6 7 8 14 -1 -4 12 13 -9 -3 -10 -2 18 19 -18 21 23 -23 -19 -25 29 27 -14 -28 -11 -31
right_child=1 2 3 -5 5 -7 -8 11 15 25 -12 -13 26 -15 -16 -17 17 20 -20 -21 -22 22 -24 24 -26 -27 28 -29 -30 30 -32
leaf_value=0.011774475575548438 0.041999473740996836 -0.10450189421800013 0.014749427360211441 0.03709677132774547 -0.048838134537559696 0.10733870739952087 0.0090332559219551498 0.070266414407412686 0.0063905077225594308 0.038297023138643367 -0.045491369369215426 0.038618866147431707 0.039792827051313304 0.048767536688041249 0.09389297476067765 0.12044385579395664 -0.057172068640830263 0.032305913392952898 0.034328305677095182 0.10626455200220974 0.048844361617880049 0.031936639778046984 0.074256640708673161 0.064758232659791415 0.20173673339739864 0.0073742245238626793 0.062564502498749799 0.13927479175492163 -0.014652061749486566 -0.026335183922205581 0.15016098161068325
leaf_weight=625.36245685815811 14034.269524678588 41.810337215662003 909.89664790034294 1106.5270404815674 79.829852774739265 20.960448250174522 294.20508617162704 725.63975396752357 119.13122323155403 5936.0059612989426 93.870223671197891 5806.3471308797598 2055.119046792388 5624.4881100058556 7.9476342350244513 23.997445061802864 70.849260911345482 251.16148456931114 731.28769654035568 16.200038596987724 25111.197307348251 2690.6188939362764 169.23492307960987 484.55087067186832 20.071713998913765 275.74018338322639 61.798449411988258 31.74077083170414 159.7852877676487 93.887094244360924 9.6980318129062635
leaf_count=2090 37851 163 2837 3117 268 48 873 1799 373 17049 364 15732 5622 14758 20 56 251 698 2044 38 66504 7555 433 1231 32 944 160 64 500 310 20
internal_value=0.0429201 0.0439439 0.0401138 0.0237876 0.0424026 -0.0163594 0.0427987 0.0434764 0.000148385 0.0339608 0.00911583 0.0440542 0.047699 0.0512242 -0.0728131 0.0255131 0.0454523 0.0470924 0.0278305 -0.0267562 0.0476411 0.0392844 0.034441 0.0576115 0.0702066 0.0361578 0.0380017 0.0413059 0.0068832 0.0374719 -0.00981094
internal_weight=67683.2 60742.5 17163.1 2110.29 15052.8 100.79 14952 14657.8 192.887 6940.69 1003.77 14464.9 8658.57 6350.13 49.758 143.129 43579.4 29545.2 818.337 87.0493 28726.8 3615.64 2859.85 755.784 504.623 6315.33 2308.44 2086.86 221.584 6039.59 103.585
internal_count=183804 163391 46754 6318 40436 316 40120 39247 612 20413 3201 38635 22903 16557 183 429 116637 78786 2333 289 76453 9949 7988 1961 1263 18323 6346 5686 660 17379 330
is_linear=0
shrinkage=0.100752


Tree=10
num_leaves=32
num_cat=0
split_feature=11 4 7 12 7 6 11 11 13 11 15 13 4 10 13 4 11 12 2 15 13 1 16 15 10 12 6 16 13 12 11
split_gain=80.6904 32.7428 27.7895 27.42 25.9182 24.5423 24.6214 23.96 24.6941 25.2782 22.4641 22.006 30.4671 22.716 21.6404 21.2269 21.6779 21.6873 20.8714 20.4303 23.639 24.4046 23.4972 21.3492 23.3917 25.5795 20.8587 20.7269 20.271 20.0002 19.8973
threshold=1.6923950000000001 75.788495000000012 2.2477450000000005 2538.9891375000002 2.1789450000000001 -15.836689999999999 1.9721950000000004 1.0649300000000002 262.07588250000003 1.1393150000000003 0.91350498840368533 251.50197850000004 86.878770000000017 0.93736000000000008 129.76272150000003 88.009685000000019 1.2448750000000002 1328.0353910000001 1.0000000180025095e-35 -0.83659257831298095 42.259096000000007 1.5000000000000002 944197.50000000012 -0.45509759180978854 -0.9439749999999999 2863.1686120000004 -14.817819999999999 958021.50000000012 213.20284750000005 2282.6461080000004 2.1874650000000004
decision_type=10 8 10 10 8 10 10 10 10 10 10 10 10 10 8 10 10 10 2 10 8 2 2 10 10 10 10 2 10 10 10
left_child=1 3 4 -1 11 6 -2 -4 -9 -10 -11 14 13 -13 -3 16 17 -16 -19 20 21 -7 30 27 25 -25 -22 28 -24 -26 -21
right_child=5 2 7 -5 -6 19 -8 8 9 10 -12 12 -14 -15 15 -17 -18 18 -20 22 26 -23 23 24 29 -27 -28 -29 -30 -31 -32
leaf_value=0.052730252467830918 0.016547814641686198 0.017054886226698734 -0.021133548161385768 -0.012199675628829877 -0.023579829030260808 0.087296419261194413 0.035668947973733225 0.050471494273737885 0.14574624080950327 0.02322463987781765 -0.061132401614969023 0.020213420295766046 -0.046670948528352664 -0.05042350038870206 0.13966656784691175 0.02117572799820544 0.044708118270527238 -0.070073844450444442 0.016746432453427756 0.033996354511627337 0.057182397329175925 0.012217569089036821 -0.064590946694282281 0.026660382049974059 0.044895815188063265 -0.16507737306085868 0.034742256003976388 0.050555996192159634 0.054596501836294609 0.0376053723375009 0.040636241805527926
leaf_weight=736.23718355596066 789.35422405600548 1599.8541040718555 61.25513069331646 72.525101080536842 122.34118419885635 172.14629186689854 5101.6125708222389 857.68871869146824 12.278353258967398 96.320474863052368 48.020157679915428 638.69609595835209 91.860432505607605 49.819098711013794 12.436427637934683 1077.3879583030939 1283.6822586506605 33.541342735290527 173.48685798048973 6670.927205324173 436.98177878558636 59.014973863959312 31.579110741615295 799.6516090631485 11703.25483943522 7.1258675009012213 11133.496112272143 4132.8960390985012 26.759576931595802 5670.5075694024563 14624.401101022959
leaf_count=1957 2407 4893 207 229 408 401 14018 2394 28 296 186 1934 355 178 28 3147 3546 123 532 18151 1116 169 107 2266 30591 30 30075 10621 68 15104 38555
internal_value=0.0381231 0.0278483 0.0253454 0.0469077 0.0222322 0.0392898 0.0331068 0.0400583 0.0437538 0.0069656 -0.0048398 0.0233621 0.0078308 0.0151023 0.0262614 0.0319691 0.0397053 0.010443 0.00268038 0.0399465 0.0362271 0.068129 0.0409517 0.0432319 0.0417376 0.0249669 0.0355898 0.0497142 -0.00992044 0.0425163 0.0385562
internal_weight=68327.1 6967.43 6158.67 808.762 5083.11 61359.7 5890.97 1075.56 1014.31 156.619 144.341 4960.76 780.376 688.515 4180.39 2580.53 1503.15 219.465 207.028 55468.7 11801.6 231.161 43667.1 22371.8 18180.5 806.777 11570.5 4191.23 58.3387 17373.8 21295.3
internal_count=184120 20441 18255 2186 15144 163679 16425 3111 2904 510 482 14736 2467 2112 12269 7376 4229 683 655 147254 31761 570 115493 58787 47991 2296 31191 10796 175 45695 56706
is_linear=0
shrinkage=0.100752


Tree=11
num_leaves=32
num_cat=0
split_feature=5 4 15 16 5 4 10 16 8 8 15 6 5 10 6 10 12 9 5 9 15 5 4 10 16 9 5 14 8 10 15
split_gain=44.1823 62.7016 45.7497 41.9364 35.8873 33.2355 31.0948 30.3876 27.7894 27.729 26.3527 24.5233 25.7564 35.2364 31.9917 25.047 24.2035 32.856 24.0981 23.3544 25.8118 23.3204 30.9369 29.0892 23.1099 22.851 22.4733 22.2699 21.4113 25.8941 22.1857
threshold=-19.195894999999997 82.648695000000018 1.2169695683975157 928517.50000000012 -27.075184999999994 90.486615000000015 -0.64740999999999993 1052705.5000000002 6.5304200000000003 3.2773000000000008 0.29895355952145281 -16.348029999999998 -23.495344999999997 0.62070500000000017 1.7531650000000003 -0.98920499999999989 2259.0234350000005 6.5089750000000004 -23.593519999999994 5.9615600000000013 0.85257189540428391 -27.940654999999996 84.467655000000022 -0.98920499999999989 987178.00000000012 4.6820850000000016 -41.110634999999995 2.9699233308758983 6.2523650000000011 0.25790500000000005 -0.71980484200591055
decision_type=8 10 10 2 10 10 10 2 10 10 10 10 10 10 10 10 10 10 10 10 10 10 10 10 2 8 10 10 10 10 8
left_child=1 9 3 8 6 7 27 16 21 -1 -7 19 15 -14 -15 -13 -5 24 -17 20 -9 22 23 -3 -18 -12 -11 -4 30 -30 -2
right_child=28 2 4 5 -6 10 -8 11 -10 26 25 12 13 14 -16 18 17 -19 -20 -21 -22 -23 -24 -25 -26 -27 -28 -29 29 -31 -32
leaf_value=0.074323190995566946 0.033024696337876185 -0.067282593764293408 -0.13174887728166018 0.061271179976025547 0.020413315682084977 0.02970028459068047 -0.004833455339211098 0.053582522051135381 -0.031427586020365134 0.013546181559971573 0.17196322289781971 -0.0094797766975586364 0.043301457526155683 0.019323056009298942 -0.080973555844032111 0.029155115816714067 0.0035546794582165891 -0.099973918104546144 -0.047007445111108895 0.030736097098140971 0.11514493480962491 0.027428919786103928 0.00032833266925991807 0.031625821509976858 0.057203454376032907 0.0003766955375885991 0.035773555414494035 0.14335793376231079 0.0360808165385764 0.020332153819160401 0.040669449490290346
leaf_weight=186.42147518694401 5187.2280364185572 31.372128933668137 30.867948234081268 796.47458124160767 1475.0903638601303 1109.2034538984299 383.55605514347553 453.30184157192707 89.964915722608566 471.70617443323135 7.9932952970266342 187.58353479206562 2464.6372123062611 300.10448820888996 36.17424213886261 3618.3669263720512 130.81499366462231 18.741752430796623 42.667616188526154 397.83190788328648 81.575842306017876 6925.1922326982021 826.70648083090782 796.83256828784943 216.22860491275787 548.92132551968098 21856.16918066144 3.3069140166044226 3544.2744763493538 1511.864550113678 14987.146734759212
leaf_count=445 13830 112 134 2004 4353 3066 1274 1182 287 1373 15 593 6390 834 125 9915 381 68 138 1111 193 19110 2515 2186 548 1717 58372 7 9247 4120 38441
internal_value=0.0338805 0.0319346 0.0279709 0.0294529 0.0130307 0.0337634 -0.0130386 0.0362483 0.0242771 0.0356271 0.0207218 0.0339229 0.031777 0.0391273 0.00853393 0.0264277 0.0514182 0.0299639 0.0282675 0.0492221 0.0629716 0.0248612 0.0141162 0.0278792 0.036981 0.00283945 0.035304 -0.105128 0.0372345 0.0313717 0.0387038
internal_weight=68718.3 43487.8 20973.5 19080.7 1892.82 10410.6 417.731 8744.5 8670.07 22514.3 1666.12 7582.24 6649.53 2800.92 336.279 3848.62 1162.26 365.785 3661.03 932.71 534.878 8580.1 1654.91 828.205 347.044 556.915 22327.9 34.1749 25230.5 5056.14 20174.4
internal_count=184086 118448 58258 52490 5768 28280 1415 23482 24210 60190 4798 20481 17995 7349 959 10646 3001 997 10053 2486 1375 23923 4813 2298 929 1732 59745 141 65638 13367 52271
is_linear=0
shrinkage=0.100752


Tree=12
num_leaves=32
num_cat=0
split_feature=11 10 10 3 11 9 9 6 10 14 3 11 11 4 6 6 9 1 20 6 3 9 14 6 11 14 7 4 10 11 9
split_gain=62.6184 23.6386 23.3375 23.6368 30.887 21.6512 26.057 21.4613 21.2282 23.5924 24.9719 23.0969 23.0374 29.4217 20.8387 20.7441 20.1283 19.7445 22.6329 21.8129 35.6764 19.699 19.4131 21.1907 19.0642 21.3012 18.568 18.4532 19.5329 18.0348 19.888
threshold=1.5242750000000003 -0.73324499999999981 0.84147500000000008 1.0000000180025095e-35 2.5032450000000002 6.6853050000000005 6.3674250000000008 6.707485000000001 -0.56317499999999987 -0.82840474715627732 1.0000000180025095e-35 3.1283250000000007 2.2668850000000007 78.782045000000011 5.9042250000000012 -9.463264999999998 6.1999850000000007 1.0000000180025095e-35 1.0000000180025095e-35 -17.746884999999995 1.0000000180025095e-35 6.7048050000000012 -2.4246478500186286 -13.886224999999998 2.2061250000000006 -0.51699390897661823 3.7029050000000008 91.278310000000019 -0.056974999999999991 2.1994900000000004 6.1195050000000011
decision_type=10 10 10 2 10 10 10 10 10 10 2 10 10 10 10 10 10 2 2 10 2 10 8 10 10 10 10 10 10 10 8
left_child=1 -1 8 -4 16 6 7 14 9 -2 24 12 13 -10 -6 -13 26 19 -19 20 -15 29 -18 -24 25 -11 -5 28 -22 30 -12
right_child=2 -3 3 4 5 -7 -8 -9 11 10 21 15 -14 17 -16 -17 22 18 -20 -21 27 -23 23 -25 -26 -27 -28 -29 -30 -31 -32
leaf_value=-0.0042128178979651239 0.040590604502251638 0.021219716186297619 0.030180692385939779 0.024361832131010976 0.00068812448926720729 -0.062675586001325931 0.048994501338778869 -0.07307380523942926 0.039570798119866177 -0.09546290978904598 0.027385638963835585 0.034681022601508037 0.03566727868398914 0.032163056076829212 0.13496170937290694 0.021930325325056413 -0.072252386669517527 0.032784483300126045 0.010186921751216363 0.02558862483616299 -0.008892340867095061 0.0063807907654945418 0.0071678500453978789 0.096351235069519731 0.0084399562757435445 0.035968015105086439 -0.11038666645138648 0.0036015188311201941 -0.10976665745744471 0.033509477604898578 0.0053275834599528209
leaf_weight=414.80200460553169 1352.7270811498165 3511.5413023084402 2493.310482531786 438.09486730396748 674.87675672769547 49.13111774623394 123.02335327863693 39.801787808537483 3334.9589790552855 12.869611844420431 2254.5391732752323 2102.6586599498987 26349.366123735905 144.16050963103771 11.94024747610092 3372.7246213108301 9.9598077237606031 9459.6707538068295 472.37559428811073 4741.4445307254791 32.07918293774128 381.71911498904228 36.477218955755234 104.59038843214512 1199.9550331830978 457.46150974929333 10.632637545466421 59.47996312379837 49.635280176997185 4889.2288838922977 508.50392830371857
leaf_count=1407 3513 10186 6758 1206 1953 165 316 135 8611 46 6196 5527 67982 419 23 9130 34 25194 1335 12829 100 1086 108 232 3354 1208 39 181 193 12892 1474
internal_value=0.0308897 0.0185329 0.0316342 0.0241703 0.0141698 0.00235382 0.00611419 -0.00114585 0.0321212 0.0281255 0.0263879 0.0330028 0.0337602 0.0310134 0.00302246 0.0268269 0.0318769 0.0291056 0.0317097 0.0239604 -0.00309333 0.0287183 0.0636921 0.0732902 0.0151788 0.0323717 0.021169 -0.0390904 -0.0701658 0.0298325 0.0233261
internal_weight=69093.7 3926.34 65167.4 3991.84 1498.53 898.773 849.642 726.619 61175.6 11057 9704.28 50118.6 44643.2 18293.8 686.817 5475.38 599.755 14958.8 9932.05 5026.8 285.355 8033.99 151.027 141.068 1670.29 470.331 448.728 141.194 81.7145 7652.27 2763.04
internal_count=183832 11593 172239 10969 4211 2592 2427 2111 161270 29769 26256 131501 116844 48862 1976 14657 1619 40251 26529 13722 893 21648 374 340 4608 1254 1245 474 293 20562 7670
is_linear=0
shrinkage=0.100752


Tree=13
num_leaves=32
num_cat=0
split_feature=11 10 10 6 10 4 16 14 7 9 4 11 4 13 16 9 16 13 8 6 10 8 6 7 9 14 16 9 13 4 6
split_gain=50.6114 29.4481 27.5528 25.9879 24.608 22.29 21.385 19.8715 19.211 18.854 18.8457 18.7124 18.4849 24.3384 24.7196 20.6845 24.2544 20.1011 22.7637 27.6181 30.8113 26.67 19.4831 22.987 21.9765 26.6377 22.7836 18.9805 30.4273 38.4942 30.223
threshold=1.4223800000000002 -1.2918999999999998 0.80773000000000017 -19.796244999999995 0.73648500000000017 93.736410000000021 175698.50000000003 1.488832043026465 2.3585950000000007 7.1004750000000012 95.080125000000024 3.0284150000000003 90.600740000000016 113.43636350000001 1818573.5000000002 5.4492250000000011 645192.50000000012 262.07588250000003 4.5978800000000009 -19.796244999999995 0.05198500000000001 4.6480450000000006 8.0475050000000028 -2.4464149999999996 5.369625000000001 -0.90758066788545422 1811424.0000000002 5.1671850000000008 269.42098000000004 86.493965000000017 0.60668000000000011
decision_type=8 8 10 10 10 10 2 10 10 8 10 10 10 10 2 10 2 10 10 10 10 10 10 10 10 10 2 10 10 10 8
left_child=4 8 6 -4 5 9 7 -3 -2 -1 -9 -10 22 14 15 16 -14 18 -15 20 -20 -21 27 24 25 -24 -26 -8 -29 30 -30
right_child=1 2 3 -5 -6 -7 12 10 11 -11 -12 -13 13 17 -16 -17 -18 -19 19 21 -22 -23 23 -25 26 -27 -28 28 29 -31 -32
leaf_value=0.017992884658477346 0.01166587080682535 0.02497369794042514 -0.026464467338866659 0.021699778539923144 -0.023762764113189352 -0.062054620539968373 0.03667363947965481 0.0087601889429031934 -0.077440647997765982 -0.096758826670678866 -0.17369356635612537 0.14511011450581984 0.11381730109177933 0.081480948873410883 -0.17079095596300004 0.01730766663726677 -0.10959358733655014 -0.01169686296611073 0.030235701910975649 -0.14081043372629626 -0.030999543121096398 0.027155044217666974 0.021574011548487249 0.023372080926594981 0.038584004116354459 -0.078442615376255631 0.096372946965562895 0.030923664535084133 0.022707548599694739 -0.034787489042009859 -0.17587343099051544
leaf_weight=2472.4476950466633 662.92468675971031 4457.7250192165375 116.68720524013042 4469.0321511477232 166.99727682769299 36.441086515784264 5156.6878404766321 756.94702991843224 40.649415194988251 14.620258450508116 5.7906180471181861 4.234656795859336 5.9431099593639365 75.503136441111565 9.6245814859867078 110.47442707419395 29.015307441353798 142.85015098750591 156.18962240219116 9.6060957312583906 179.00029030442238 9155.9740299284458 207.88682778179646 7323.5547169744968 1278.3698482662439 31.070960089564323 73.219881564378738 30017.633477658033 2039.0981990098953 129.03691375255585 7.8096299469470969
leaf_count=7255 1903 11839 367 12213 550 129 13250 2109 144 55 24 8 13 177 40 319 110 476 425 37 565 24148 555 19500 3273 106 157 78248 5489 441 32
internal_value=0.0272412 0.027788 0.0280074 0.0204742 0.0136934 0.0161721 0.0285704 0.0224024 0.00734685 0.0173183 0.00737502 -0.0564438 0.029144 0.0251867 -0.0144153 -0.00406654 -0.0716126 0.0258185 0.0263781 0.0259402 -0.00246554 0.026979 0.0299886 0.0257564 0.036735 0.00856915 0.0417146 0.0309987 0.0300897 0.0185853 0.0219499
internal_weight=69343 66652.5 65944.7 4585.72 2690.51 2523.51 61359 5220.46 707.809 2487.07 762.738 44.8841 56138.5 9874.18 155.057 145.433 34.9584 9719.12 9576.27 9500.77 335.19 9165.58 46264.4 8914.1 1590.55 238.958 1351.59 37350.3 32193.6 2175.94 2046.91
internal_count=183957 175968 173913 12580 7989 7439 161333 13972 2055 7310 2133 152 147361 26310 482 442 123 25828 25352 25175 990 24185 121051 23591 4091 661 3430 97460 84210 5962 5521
is_linear=0
shrinkage=0.100752


Tree=14
num_leaves=32
num_cat=0
split_feature=11 9 5 4 5 4 5 8 15 11 7 14 11 5 9 4 11 12 9 15 5 8 7 16 16 7 13 5 15 8 16
split_gain=36.832 24.7007 19.528 21.1427 26.6024 44.6867 62.8004 31.5986 29.8647 29.5886 26.1192 28.4954 25.2193 25.4419 31.2677 29.258 25.0441 24.9678 23.2077 21.9295 22.5131 24.1107 21.7279 25.0253 22.7767 20.8592 20.3855 33.2192 26.7183 20.3601 20.3301
threshold=1.3999200000000001 6.7048050000000012 -41.110634999999995 77.128100000000003 -20.872244999999996 86.562120000000007 -30.417094999999996 4.5377250000000009 -0.71980484200591055 2.2612150000000004 0.59900500000000012 -0.73375952823201807 2.0914950000000005 -24.750299999999999 5.0259800000000014 85.122070000000022 2.6962250000000005 1445.2538405000003 5.8888800000000012 -0.33436495157246909 -22.046284999999997 6.4755650000000005 1.9916750000000001 951448.00000000012 1839770.5000000002 -2.4981949999999995 61.825329000000004 -38.378359999999994 -0.27660433581694205 6.5111800000000004 1368443.0000000002
decision_type=10 8 10 10 10 10 10 10 10 10 10 10 10 10 10 10 10 10 8 10 10 10 10 2 2 10 10 10 10 8 2
left_child=1 -1 -2 16 5 10 -7 -8 25 17 11 -5 13 14 -13 -15 -4 -9 -11 20 -18 -22 24 -24 -19 -6 27 29 -28 -21 -14
right_child=2 -3 3 4 8 6 7 9 -10 18 -12 12 30 15 -16 -17 19 22 -20 26 21 -23 23 -25 -26 -27 28 -29 -30 -31 -32
leaf_value=0.014168234652195898 0.0047465911661179645 -0.04799078703564686 0.034109713192732566 0.023620121881545622 0.046963408938146996 -0.023992632516959107 0.051892711419512114 -0.12425400807710471 0.028402937526738191 0.028630073923745548 0.026907108621693109 0.046519591242144505 0.024137133572028319 0.03548051925438088 -0.0381637515493942 -0.09810617509758339 0.0044589472125737646 -1.3005986224979498e-05 0.014530558822304659 0.016635490755473065 0.10854494024481934 -0.11755022970697575 0.0025888080850691702 0.03569044899805815 0.061409401909241032 0.019482013115123435 0.11255933359760313 0.086822539320025927 0.015642815281319764 -0.18018141868550824 -0.005444739167551815
leaf_weight=2386.0595031231642 477.58294723927975 66.708889201283455 4980.7088842242956 4122.4591614305973 293.50782912969589 378.58708374202251 270.07138602435589 14.342016249895094 23493.710988745093 2371.7908914834261 16267.818472608924 51.888602316379547 885.87988258898258 156.42059916257858 301.03675892949104 18.624410435557365 788.85665941238403 1647.7178999036551 2368.3585833907127 54.557752907276154 37.280731841921806 5.4932728409767142 409.84122532606125 533.80247782170773 63.6510069668293 6262.4261448532343 30.777732193470001 139.21605177223682 467.04892428219318 5.9136737138032904 321.38290055096149
leaf_count=7044 1370 231 12743 10916 711 1243 676 55 60072 6241 42837 134 2355 411 964 68 2170 4960 6517 146 76 20 1251 1498 161 16705 61 303 1247 24 917
internal_value=0.0246048 0.0124777 0.0250473 0.0251925 0.024603 0.0224903 0.0160666 0.0180415 0.0267251 0.0168076 0.0248299 0.019061 0.0082298 -0.0101372 -0.0257132 0.0212672 0.0306471 0.00832334 0.0215854 0.0193689 0.00831904 0.0795086 0.0090395 0.0213138 0.00227148 0.0207123 0.0325433 0.0597391 0.0216346 -0.0026118 0.0162622
internal_weight=69673.5 2452.77 67220.8 66743.2 60233.3 30183.7 8058.16 7679.58 30049.6 7409.5 22125.5 5857.69 1735.23 527.97 352.925 175.045 6509.85 2669.35 4740.15 1529.14 831.631 42.774 2655.01 943.644 1711.37 6555.93 697.514 199.687 497.827 60.4714 1207.26
internal_count=184127 7275 176852 175482 158692 81204 22602 21359 77488 20683 58602 15765 4849 1577 1098 479 16790 7925 12758 4047 2266 96 7870 2749 5121 17416 1781 473 1308 170 3272
is_linear=0
shrinkage=0.100752


Tree=15
num_leaves=32
num_cat=0
split_feature=10 10 3 9 14 9 13 13 4 9 8 7 8 8 9 13 15 16 4 8 13 3 16 12 16 12 12 12 12 13 9
split_gain=27.3346 22.8108 22.1554 24.8703 30.3384 22.2474 20.5993 20.3029 30.6947 24.0154 23.0544 21.0107 20.0633 20.1668 22.1363 28.8821 21.5039 19.6826 19.7942 18.8804 18.517 22.5014 29.5705 19.7539 19.9875 18.3791 22.4657 18.209 19.233 17.462 17.0689
threshold=0.84147500000000008 -0.56317499999999987 1.0000000180025095e-35 5.4151250000000006 0.90811534838119157 5.6572250000000013 273.45076200000005 219.00960150000003 81.551175000000015 4.8865250000000007 6.4593950000000007 -3.3911949999999997 5.4660050000000009 5.5229100000000004 5.2322050000000013 177.75169250000002 1.4670074269577358 442322.50000000006 94.70399500000002 5.7634950000000007 36.555982500000006 1.0000000180025095e-35 1157667.5000000002 2738.5929670000005 1839770.5000000002 2004.8448030000002 1987.4189800000001 2509.7149825000001 2363.6003900000005 269.42098000000004 4.4232850000000008
decision_type=10 8 2 10 10 10 8 8 10 8 10 10 10 10 10 10 10 2 8 10 10 2 2 10 2 10 10 10 10 10 8
left_child=1 7 30 12 5 -5 29 20 11 -10 17 -9 -4 -14 15 -15 -17 18 -11 -8 -1 22 -22 24 -24 26 -19 28 -16 -7 -2
right_child=2 -3 3 4 -6 6 19 8 9 10 -12 -13 13 14 27 16 -18 25 -20 -21 21 -23 23 -25 -26 -27 -28 -29 -30 -31 -32
leaf_value=-0.0050259368523724469 0.10334297148650065 0.023725918239861036 -0.0086885013911252237 -0.029750275151940838 -0.073011699589927689 0.0059764646218712948 0.11002370378490116 -0.082042091428954328 0.066818573863804701 0.026626418996815865 -0.093560436290537077 0.029615610646263921 0.14922792859230738 -0.063684531203998584 0.073847385770150112 0.057132698229735365 -0.12825419583341136 -0.02407835060742999 -0.17448154065061305 -0.074936178684948673 -0.0012601788446637663 0.02362732452992105 0.032735970103366256 -0.13419422404932815 -0.04391880568883634 0.00051546431891486162 -0.15233537878927481 0.19092974351139322 -0.091113412475726588 -0.16782842858741812 0.019222419282626104
leaf_weight=275.72143550217152 24.715782642364502 53728.098898306489 98.976140812039375 190.75407187640667 58.069510474801064 902.7827073186636 33.179594367742538 17.554456129670143 53.118166461586952 277.37104298174381 27.511774525046349 671.01737679541111 17.587032601237297 38.166011899709702 70.969173073768616 77.478805273771286 6.9185186475515357 206.5503925383091 5.0586840957403174 6.7403420954942694 916.70782421529293 8006.2325037419796 623.08157037198544 7.6647537052631369 36.555038511753082 718.21618255972862 14.86069844663143 11.886615604162214 7.9814143329858771 5.9062395542860022 2627.749954611063
leaf_count=825 51 140309 291 586 195 2525 71 60 125 742 96 1760 32 125 165 189 26 632 21 23 2571 21284 1595 29 113 2045 59 18 28 25 7142
internal_value=0.0223398 0.0228432 0.01444 0.00477367 -0.00197513 0.00164537 0.00795867 0.0188435 0.00956351 0.000469053 -0.00235141 0.026769 0.0292649 0.0455276 0.0369814 0.00904561 0.0419355 -0.000298053 0.0230243 0.0787939 0.0207165 0.0214566 0.0104848 0.0266194 0.028488 -0.0073082 -0.0326867 0.0746741 0.0571709 0.00484678 0.0200063
internal_weight=69765.2 65585.3 4179.86 1527.4 1197.43 1139.36 948.609 11857.2 1991.26 1302.69 1249.57 688.572 329.964 230.988 213.401 122.563 84.3973 1222.06 282.43 39.9199 9865.96 9590.24 1584.01 667.301 659.637 939.627 221.411 90.8372 78.9506 908.689 2652.47
internal_count=183758 172266 11492 4299 3425 3230 2644 31957 5540 3720 3595 1820 874 583 551 340 215 3499 763 94 26417 25592 4308 1737 1708 2736 691 211 193 2550 7193
is_linear=0
shrinkage=0.100752


Tree=16
num_leaves=32
num_cat=0
split_feature=5 4 11 11 13 4 5 5 11 12 2 12 9 8 11 12 3 8 3 8 9 5 6 12 11 4 5 9 6 11 9
split_gain=30.761 45.8924 41.6823 31.1306 30.0266 27.2733 26.5995 22.5198 24.7112 21.8112 23.2186 19.7278 17.6369 18.1577 17.431 24.1029 22.2678 21.3773 17.3796 18.5237 26.9943 17.6634 17.1769 17.1052 23.0343 21.4002 20.7335 19.4705 20.6436 16.9816 19.5628
threshold=-20.872244999999996 88.715865000000022 2.2612150000000004 2.0781450000000006 33.352008000000005 80.783125000000013 -24.967029999999998 -28.882414999999998 1.1981600000000003 1916.4936885000002 1.0000000180025095e-35 1622.9031480000001 6.1590750000000005 5.6614650000000006 1.7164250000000003 1373.5810920000001 1.0000000180025095e-35 5.3397100000000011 1.0000000180025095e-35 5.805880000000001 5.2523100000000005 -21.063394999999996 13.305965000000002 1937.2029730000002 1.1981600000000003 76.121735000000015 -21.162454999999998 4.5182800000000016 14.530865000000002 1.9340400000000002 5.3616600000000014
decision_type=10 8 10 10 8 10 10 10 8 10 2 10 8 10 10 10 2 10 2 10 10 10 10 10 10 10 10 10 10 10 8
left_child=1 3 7 4 -1 23 12 8 -3 10 11 -9 22 14 17 -16 -17 -14 21 -20 -21 -8 -7 24 -6 -26 27 -27 -29 -22 -31
right_child=-2 2 -4 -5 5 6 18 9 -10 -11 -12 -13 13 -15 15 16 -18 -19 19 20 29 -23 -24 -25 25 26 -28 28 -30 30 -32
leaf_value=-0.0087153654324179809 0.02198542932205079 0.14370938187854149 0.015672168252176648 0.021240423401124298 -0.030479171577873422 0.0075956019676134169 0.035690406955892241 0.16730483288251424 -0.053842743321996657 0.003097842535249255 -0.068603607084657917 -0.0096374833419950855 -0.0548663690260901 -0.033949893730700523 0.12359825735553692 0.037564737305416374 -0.019628048995411516 0.016186261783588736 0.022654654565399546 0.056792386616550714 -0.034430859207108741 -0.052393066857965777 0.037271987233827915 0.023983274866593129 0.03371214204330341 -0.14443459497371036 0.11779330694527615 0.0042842430291074344 0.084545834822706029 -0.183754395976609 0.026941937795186235
leaf_weight=522.14272709190845 30710.478620886803 6.7702999413013458 2895.4640608280897 22217.055919602513 120.60759523510933 3126.7997822463512 729.61900210380554 7.2457134872674933 126.92285038530827 1432.6651839017868 92.786039039492607 54.555463418364525 95.808406665921211 199.06842140853405 20.143103390932083 140.54111383855343 135.95111149549484 77.958998113870621 671.03892873227596 58.728127673268318 203.55784197151661 23.865595772862434 211.36803741753101 4398.680891931057 448.75104020535946 8.7022030204534513 17.005629688501358 995.82100056111813 33.628016471862793 4.7005443722009659 92.517464578151703
leaf_count=1553 78887 16 7875 57796 385 8900 1903 15 491 4317 336 174 337 632 40 368 411 232 1823 144 644 76 570 11618 1135 33 34 2789 77 19 242
internal_value=0.0195981 0.0177264 0.00829139 0.0189869 0.0149287 0.0159736 0.0110371 -0.00412665 -0.0438386 -0.000781741 -0.0367365 0.0111076 0.00648149 -0.00844332 0.00235074 0.0171948 0.00944307 -0.0229893 0.0212708 0.0127677 -0.00568702 0.0329005 0.00947467 0.0207204 0.0118854 0.0152829 0.00744505 0.00563747 0.00690607 -0.0178865 0.0167547
internal_weight=69880.9 39170.5 4616.41 34554.1 12337 11814.9 5791.67 1720.95 133.693 1587.25 154.587 61.8012 4007.64 669.471 470.403 296.635 276.492 173.767 1784.03 1030.54 359.504 753.485 3338.17 6023.2 1624.52 1503.91 1055.16 1038.15 1029.45 300.776 97.218
internal_count=183872 104985 13224 91761 33965 32412 16341 5349 507 4842 525 189 11490 2020 1388 819 779 569 4851 2872 1049 1979 9470 16071 4453 4068 2933 2899 2866 905 261
is_linear=0
shrinkage=0.100752


Tree=17
num_leaves=32
num_cat=0
split_feature=11 10 16 10 3 11 11 15 7 13 6 11 14 13 13 9 14 6 10 16 5 10 7 7 9 16 9 14 13 12 13
split_gain=27.9205 38.8895 21.1232 19.4517 45.6369 35.8792 31.9538 30.1612 27.4858 40.0609 27.3099 25.2343 24.3935 23.7052 21.1519 21.0676 21.8499 28.1496 28.1885 23.4112 20.7715 19.5476 19.3326 37.188 19.8455 17.466 17.3155 18.1294 17.1847 18.4323 17.3469
threshold=1.6923950000000001 -0.76965499999999987 1853815.0000000002 0.60114500000000015 1.0000000180025095e-35 3.1403500000000002 2.3444550000000004 -0.86359690450966775 1.1073500000000001 240.08761500000003 -6.5599749999999988 3.1791650000000007 -6.1819736936456238 25.401913000000004 236.63114950000002 6.1128050000000007 -1.2079501613952612 -17.201454999999996 1.4247800000000004 1781727.5000000002 -28.667269999999998 0.75087500000000007 2.6236300000000008 1.9305000000000001 5.3294450000000007 397832.00000000006 4.8865250000000007 -1.6093208527533152 20.261430500000003 2452.5247035000007 125.36151100000002
decision_type=8 10 2 10 2 10 10 10 10 10 10 10 10 8 10 8 10 10 8 2 10 10 10 10 8 2 8 8 10 8 10
left_child=1 2 -1 -2 6 28 8 -7 12 13 26 -9 20 -10 -15 25 17 -17 21 -18 -5 -19 23 -13 -25 -8 27 -11 29 -6 -30
right_child=3 -3 -4 4 5 7 15 11 9 10 -12 22 -14 14 -16 16 19 18 -20 -21 -22 -23 -24 24 -26 -27 -28 -29 30 -31 -32
leaf_value=-0.013841418915405683 0.01922364692632136 0.014306283493712744 0.092577909412209683 0.073552900718445016 0.08627364154910995 -0.047515208946147199 0.051494018682421643 -0.072824148883102749 -0.11540918209493263 0.10083551483543492 -0.13607308513936381 0.023429792619484226 -0.014677508420159949 0.030987202668565722 0.086757814574388706 -0.15526394293947365 0.026439970521135808 -0.056461476549551276 -0.18227893531687311 -0.070051897179423325 -0.18190351389864864 0.023809659233575042 0.092545990497806346 0.080596165718165941 -0.1129155057437195 0.028313692545516807 0.0063561558771882696 -0.15319403553375829 -0.012330567920995097 -0.11659452143315857 0.011316306858407208
leaf_weight=671.25302374362946 54282.7431114465 6492.0559065341949 19.482867613434792 49.77185320854187 47.460735142230988 217.29563723504543 422.64027659595013 39.440491214394569 10.50449715554714 3.6508064270019531 14.486841723322867 182.2641154229641 514.58632397651672 634.43687163293362 77.459497317671776 13.609061583876608 683.73576013743877 40.683997824788094 8.6443372368812543 26.513870239257812 3.455344781279563 126.69505895674229 28.145245224237442 6.3705781251192093 34.58588607609272 1504.7107454836369 650.07701528072357 13.0311118811369 353.66753792762756 5.0279647111892691 2873.3014879971743
leaf_count=2185 140673 18145 47 112 103 680 1008 129 38 8 54 474 1469 1597 168 53 1753 126 35 86 14 329 60 14 124 3823 1831 51 1005 18 7700
internal_value=0.0178389 0.0118881 -0.0108398 0.0185188 0.0140628 0.00579498 0.0205886 -0.0191178 0.010743 0.0183094 0.00078175 0.00210133 -0.00796128 0.0348384 0.0370555 0.027454 0.0147257 -0.0156576 -0.00486409 0.0228379 0.0569695 0.00429855 0.0138575 0.00393589 -0.0828157 0.0333968 0.00375523 -0.0976001 0.00965483 0.0668406 0.00872467
internal_weight=70051.8 7182.79 690.736 62869 8586.25 3787.56 4798.69 508.102 1971.46 1403.65 681.246 290.806 567.814 722.401 711.896 2827.23 899.882 189.632 176.023 710.25 53.2272 167.379 251.366 223.221 40.9565 1927.35 666.759 16.6819 3279.46 52.4887 3226.97
internal_count=183912 20377 2232 163535 22862 10307 12555 1481 5342 3747 1944 801 1595 1803 1765 7213 2382 543 490 1839 126 455 672 612 138 4831 1890 59 8826 121 8705
is_linear=0
shrinkage=0.100752


Tree=18
num_leaves=32
num_cat=0
split_feature=13 4 12 16 7 15 12 5 5 14 12 12 12 11 12 16 16 7 5 5 15 2 16 5 13 16 14 14 14 14 7
split_gain=20.6552 55.6917 27.8466 32.3074 28.4299 26.5323 25.99 27.5427 21.783 21.3081 21.0447 21.3959 22.439 19.9077 19.6814 19.646 20.7008 27.3095 21.2241 20.3903 19.1165 18.3869 24.2291 17.4835 17.331 20.1863 19.4127 20.6653 16.5034 16.238 16.2294
threshold=262.07588250000003 84.547880000000006 2040.3335975000002 979589.50000000012 3.4916250000000004 -0.26773214035002585 1711.1399295000003 -32.360389999999988 -39.492114999999991 -0.88849669388107544 2538.9891375000002 2222.0070460000002 2132.8927120000003 1.5242750000000003 2119.7570725000005 1600657.0000000002 725139.00000000012 1.7765750000000002 -29.399024999999998 -30.316379999999999 -1.6940786912012997 1.5000000000000002 1839770.5000000002 -29.193634999999997 266.11789800000003 1709740.0000000002 1.3990034408548402 1.2907908239896668 1.2132973477407607 -0.6635982942988442 3.7029050000000008
decision_type=10 10 10 2 10 10 10 10 10 8 10 10 10 10 10 2 2 10 10 10 8 2 2 10 10 2 10 10 10 10 10
left_child=8 2 3 4 5 -2 28 14 9 -1 11 12 -9 -10 -8 16 17 -13 19 -18 -17 23 -23 -5 25 -4 27 -26 -3 -21 -30
right_child=1 6 24 21 -6 -7 7 10 13 -11 -12 15 -14 -15 -16 20 18 -19 -20 29 -22 22 -24 -25 26 -27 -28 -29 30 -31 -32
leaf_value=0.091453669258019329 0.014973048698231527 -0.079018677699412745 -0.00082712880931810244 0.026225366950842745 0.051662831854656546 -0.026739087769697387 -0.076613247902771867 -0.0019529635291678767 0.0090474189568051522 -0.0034320330222985529 0.089122485160237908 0.042819853364314542 0.04767573770842818 0.017065225254034359 -0.011186690918225363 0.14774792394209182 0.017447838101566807 -0.11640119110512288 0.066839172083688392 0.016733941286111165 -0.11793607451763827 0.0060542216666625093 -0.12007186613934892 0.11686611532444917 0.021657087416132838 -0.13288627551319115 0.069466612700371799 -0.13903039114212482 0.062219211893459081 -0.17156881679936237 -0.16744925263543919
leaf_weight=24.822752267122269 214.54462720453739 83.951399490237236 148.81047117710114 497.9072077870369 70.635032281279564 555.83302764594555 83.563117995858192 354.54810075461864 3315.6738878190517 746.90493220090866 27.828176885843277 16.010417282581329 125.11412745714188 60549.772598087788 105.71727801859379 2.9978503733873367 37.880016803741455 34.495015606284142 42.909989893436432 7.072830036282542 33.126695111393929 323.63906462490559 16.236587360501289 22.58142226934433 2609.4870454370975 12.757029145956038 87.249424293637276 8.1496618539094907 17.271138310432438 13.562919437885283 3.8127342313528052
leaf_count=54 565 297 408 1283 168 1669 309 1088 9552 2123 63 44 336 157166 328 5 112 136 111 20 129 891 59 45 6735 47 198 31 44 57 16
internal_value=0.0159389 0.0100449 0.0147399 0.00452913 -0.00951338 -0.0151226 -0.0116207 -0.00599586 0.0164457 -0.000380018 0.0032771 -0.000300635 0.0109921 0.016649 -0.0400711 -0.0291043 -0.0132252 -0.0659275 0.0130181 -0.0264492 -0.0958879 0.0182558 2.89085e-05 0.0301578 0.0208004 -0.0112542 0.0227151 0.0211568 -0.0590047 -0.107029 0.0206868
internal_weight=70194.9 5557.69 4567.83 1701.38 841.013 770.378 989.862 884.827 64637.2 771.728 695.546 667.718 479.662 63865.4 189.28 188.056 151.931 50.5054 101.426 58.5158 36.1245 860.364 339.876 520.489 2866.45 161.568 2704.89 2617.64 105.035 20.6357 21.0839
internal_count=184089 15194 12099 4680 2402 2234 3095 2738 168895 2177 2101 2038 1424 166718 637 614 480 180 300 189 134 2278 950 1328 7419 455 6964 6766 357 77 60
is_linear=0
shrinkage=0.100752


Tree=19
num_leaves=32
num_cat=0
split_feature=5 4 15 16 10 10 4 12 5 4 8 8 16 4 10 10 4 10 13 10 6 8 13 7 4 16 12 14 5 12 8
split_gain=24.6315 51.9349 39.6295 36.6409 31.5027 33.9868 28.9633 22.9353 22.1405 20.8053 19.4044 18.8789 26.0202 33.2799 30.1236 34.7887 23.967 18.6425 18.5481 21.7344 25.6514 25.7965 24.4754 23.0531 21.3303 22.0688 27.5712 20.0999 23.9601 22.5289 20.945
threshold=-19.195894999999997 82.566830000000024 1.8589738423289817 920675.00000000012 -0.39996499999999996 0.24480500000000002 95.080125000000024 1173.7558565000002 -35.301659999999991 90.152075000000011 6.5737050000000012 6.1879850000000003 517907.00000000006 83.765805000000015 -0.017354999999999999 -0.15139499999999997 90.961005000000014 -1.3705199999999997 179.79707750000003 0.12322500000000002 2.0246600000000003 6.3522150000000011 156.07172350000005 -3.3911949999999997 92.885745000000014 412581.50000000006 2341.0707235000004 -1.2643114388896433 -8.3297699999999981 2011.6613040000004 5.2523700000000009
decision_type=8 10 10 2 10 10 10 10 10 10 10 10 2 10 10 10 8 10 10 10 10 10 10 8 10 2 8 10 8 10 10
left_child=1 -1 3 6 17 7 11 -6 10 -4 -9 -3 13 -13 15 -14 -15 -5 19 22 24 -22 23 -2 25 26 -21 28 29 -20 -29
right_child=18 2 9 4 5 -7 -8 8 -10 -11 -12 12 14 16 -16 -17 -18 -19 27 20 21 -23 -24 -25 -26 -27 -28 30 -30 -31 -32
leaf_value=0.016330566985358664 -0.056080789072199586 0.0072359131650067228 -0.015254329050056924 -0.05003375460329984 -0.085167261019471002 0.0098050887950939507 -0.070208016087335609 -0.042540336181688676 0.023627777335895703 -0.10317741834275168 0.19867905233891248 -0.090858983885512376 -0.00074109636743682685 -0.006712716480007529 0.039603061846843583 -0.12912571169637044 -0.10324902326429354 0.0056457559204784969 0.035249630288733479 0.028895764011985809 0.014427723544333981 -0.019247556917903755 0.038322364500394709 0.022084275766223897 -0.10676363445190636 0.078540403991823743 -0.18976332375596242 0.00090615799422957355 -0.15535538561529849 -0.0040101892362295983 0.016863589150060178
leaf_weight=22862.536639034748 38.776150703430176 8709.4801072180271 381.31869526207447 62.475020408630371 20.061327278614044 3959.5089745372534 51.104401558637619 72.270882532000542 4832.0863387733698 29.428068548440933 3.551548793911933 66.090491503477097 168.94240944087505 365.90582892298698 188.05773155391216 24.536693423986435 28.111735448241234 2659.4776489138603 180.97669844329357 46.126269072294235 1651.236060962081 268.45318739116192 1143.8571231067181 3126.8761082291603 8.5670389980077726 128.05086915194988 6.7045236974954596 876.73721460998058 9.7858006954193097 823.56029351055622 17519.45572642982
leaf_count=59608 118 23815 1183 204 67 10715 174 224 12480 116 5 226 473 1032 468 90 102 7307 440 115 4224 753 2736 7842 30 272 27 2343 37 2242 44681
internal_value=0.0144196 0.0129827 0.00944284 0.0100431 0.0138514 0.0167559 0.0054387 0.0223407 0.0227801 -0.0215536 -0.0312415 0.00584345 -0.00856597 -0.0246978 0.0108879 -0.0170226 -0.0136002 0.00436778 0.0168944 0.0215895 0.013209 0.0097185 0.025691 0.0211268 0.0485783 0.0559357 0.0011467 0.0153418 0.00153447 0.00306283 0.0161031
internal_weight=70314.1 44484.9 21622.4 21211.7 11609.4 8887.48 9602.23 4927.97 4907.91 410.747 75.8224 9551.12 841.645 460.108 381.537 193.479 394.018 2721.95 25829.2 6418.65 2109.14 1919.69 4309.51 3165.65 189.449 180.882 52.8308 19410.5 1014.32 1004.54 18396.2
internal_count=184149 118289 58681 57382 31002 23491 26380 12776 12709 1299 229 26206 2391 1360 1031 563 1134 7511 65860 16117 5421 4977 10696 7960 444 414 142 49743 2719 2682 47024
is_linear=0
shrinkage=0.100752


Tree=20
num_leaves=32
num_cat=0
split_feature=13 12 11 10 11 16 11 10 15 5 14 13 12 8 10 14 13 10 12 10 11 5 12 13 5 10 6 11 11 11 12
split_gain=19.222 46.1345 20.7866 20.5625 20.0971 19.2544 25.8489 18.852 19.1329 17.7363 16.6484 33.8641 26.0696 20.2955 31.4905 18.0178 22.5897 23.2003 24.2157 21.9318 21.9338 17.8016 17.3497 23.8207 25.0769 17.2923 17.9654 22.9125 17.8485 18.8444 17.731
threshold=269.42098000000004 2001.8095030000002 2.362365 -0.41465499999999994 1.1393150000000003 465082.00000000006 2.2668850000000007 0.21990500000000004 2.29360740486407 -34.352294999999991 -2.5304328426928753 251.50197850000004 1677.9165250000003 5.666195000000001 0.52755500000000011 -2.0264209286050923 70.98238400000001 0.12893000000000002 2523.5680055000007 0.093485000000000013 2.5752350000000006 -11.387624999999998 2452.5247035000007 259.82874900000007 -30.947814999999995 1.1660900000000003 -10.369204999999999 1.8169800000000003 3.4525000000000006 3.1527100000000003 1559.1696445000002
decision_type=8 10 10 10 10 2 10 10 10 10 10 10 10 10 10 10 10 10 10 10 10 10 10 10 10 10 10 10 10 10 10
left_child=10 2 5 -3 7 6 -2 -5 9 -9 11 21 -13 22 -15 16 -12 19 -19 -18 -21 -1 -14 -24 -25 -17 27 -27 29 30 -28
right_child=1 3 -4 4 -6 -7 -8 8 -10 -11 15 12 13 14 -16 25 17 18 -20 20 -22 -23 23 24 -26 26 28 -29 -30 -31 -32
leaf_value=-0.00069848111880892389 -0.035562999255271087 -0.0040716884625158697 0.0072683976981113329 0.11119133717122763 0.015378290023775909 -0.010864791069918443 -0.16405442780262419 0.030473966518523198 0.12117798060343868 -0.17515779858900382 -0.073009186041674279 0.16222060991768769 0.053380066189495978 0.021473458580096756 -0.079668776094889371 0.013619422301849947 0.03484979409623129 0.016143025560591641 -0.19182512284646455 0.15005703358519368 -0.014439069933433265 0.08328420099327781 0.066611021431703138 0.10823405712732546 -0.066759117223769787 -0.068216320743933273 0.039088514411351832 0.015315631246435604 -0.1485154703430292 0.064219051627239565 -0.043083279338886386
leaf_weight=2198.2695076614618 165.52469253540039 583.4880468249321 481.10468854010105 43.241978093981743 2582.5576305687428 642.52285633981228 17.580923452973366 9.7853299677371997 9.1382480114698392 7.5377421528100994 23.845512807369232 14.457493633031843 244.22276173532009 125.25194644927979 41.635264560580254 60634.228586137295 654.22587139904499 858.54206629097462 5.7213092744350424 32.654297173023224 11.000143766403196 25.922700807452202 36.532264426350594 10.018300786614416 48.825069859623909 36.085975900292397 31.918151795864105 436.94321200251579 11.363335594534872 24.518016546964645 161.68587672710419
leaf_count=5941 523 1618 1281 90 6788 1883 69 26 19 31 78 23 566 318 138 158161 1594 2225 23 54 30 55 81 19 154 125 80 1167 44 57 494
internal_value=0.012938 0.0065995 -0.0093782 0.013052 0.0168191 -0.0190784 -0.0479001 0.0702032 0.00322198 -0.059002 0.0133764 0.00569598 0.0288184 0.0250105 -0.00375965 0.0137115 0.0243141 0.0257997 0.0147663 0.0394635 0.108607 0.000280327 0.0391488 0.00270776 -0.0369659 0.0134373 -0.00227899 0.00894323 -0.0254109 -0.0189976 -0.0295362
internal_weight=70210.3 4542.48 1306.73 3235.75 2652.26 825.628 183.106 69.7033 26.4613 17.3231 65667.9 2745.14 520.943 506.486 166.887 62922.7 1585.99 1562.14 864.263 697.88 43.6544 2224.19 339.598 95.3756 58.8434 61336.7 702.515 473.029 229.485 218.122 193.604
internal_count=183755 12328 3756 8572 6954 2475 592 166 76 57 171427 7295 1299 1276 456 164132 4004 3926 2248 1678 84 5996 820 254 173 160128 1967 1292 675 631 574
is_linear=0
shrinkage=0.100752


Tree=21
num_leaves=32
num_cat=0
split_feature=10 11 4 3 10 6 6 5 7 4 10 26 14 15 6 4 12 12 7 5 9 4 7 14 9 13 4 4 13 5 7
split_gain=26.7451 20.468 18.5743 24.7551 44.1622 24.3897 24.1683 33.4205 30.7568 22.5122 22.7855 24.2897 21.6088 29.6425 20.8938 38.5654 31.5748 21.1609 20.8027 20.3317 18.9276 23.0675 19.6601 25.4777 19.322 18.7263 36.8606 28.7564 22.236 20.8511 19.6353
threshold=-1.2918999999999998 1.8169800000000003 75.233970000000014 1.0000000180025095e-35 0.034635000000000006 10.947325000000001 3.6713050000000007 -18.326779999999996 1.8528150000000003 93.266860000000023 0.11125500000000001 1.0000000180025095e-35 1.6645311759059651 -0.48610720461285378 -18.128194999999998 93.266860000000023 2523.5680055000007 2029.2730565000002 1.0306650000000002 -24.643199999999997 6.1058700000000004 90.041550000000015 2.3080200000000004 1.5618146952696579 6.0256200000000009 127.62208550000001 85.433560000000014 76.580280000000016 121.89571450000001 -30.627474999999997 0.95850500000000005
decision_type=8 8 10 2 10 10 8 10 10 10 10 2 10 8 10 10 10 10 8 10 8 10 10 10 10 8 10 10 10 10 10
left_child=-1 2 -2 4 14 12 7 9 -9 10 -5 -12 19 -14 17 25 18 -4 -17 -6 21 -8 23 -22 -23 26 28 -27 29 -16 -29
right_child=1 -3 3 6 5 -7 20 8 -10 -11 11 -13 13 -15 15 16 -18 -19 -20 -21 22 24 -24 -25 -26 27 -28 30 -30 -31 -32
leaf_value=-0.0072843524104980384 0.021541888696730693 0.01257771550831986 -0.037999271213790299 -0.013970038625658777 -0.0043697237444703654 -0.046909424685542399 0.017662713585835321 0.0025817607591974703 0.044278433736277906 -0.10215987176332922 0.012895290290833999 -0.058266524422561278 -0.13447061015713332 0.077109943004548501 0.0024940651226824572 0.003501326149818353 0.10322212759348083 0.10397732811024589 -0.15548922912319313 0.015505085167526689 -0.0075604723325659309 -0.044123561137381528 0.092614679426597402 -0.11937622394905122 0.089193640853828637 -0.092670703187361966 -0.094745763480847581 0.057480487683687138 -0.14312090916385942 0.063403432644938737 0.026621921143373306
leaf_weight=749.16991032660007 901.94168849289417 59202.732203930616 12.93001815676689 1821.0988247990608 1194.8177039772272 91.198292836546898 1727.1024361997843 709.69930370151997 240.40457107126713 26.070360779762268 640.88608461618423 52.692735195159912 7.4049243032932281 72.8360675573349 171.0040582716465 12.237851455807688 9.1428423821926099 60.601558238267899 26.321480467915531 928.531115680933 376.58989129960537 100.08653219044209 18.474385529756546 21.88759882748127 12.402935609221457 17.964825063943863 33.43554399907589 299.97352665662766 8.4680537730455381 85.615324094891548 692.55160397291183
leaf_count=2163 2330 153054 43 5415 3508 284 4658 1905 572 99 1767 191 28 165 478 33 18 135 103 2485 1084 318 40 80 27 61 119 701 32 203 1823
internal_value=0.0116505 0.0118543 0.00772625 0.00641076 0.0128085 0.00414788 0.00226422 -0.00298866 0.0131323 -0.00901702 -0.00805138 0.00748897 0.00626095 0.0575845 0.0267042 0.0238692 -0.0651147 0.0790117 -0.105029 0.00432144 0.0103904 0.0147834 -0.00899158 -0.0137023 -0.0294242 0.0271119 0.00494089 0.0336618 0.0175144 0.0228151 0.0359484
internal_weight=70326.3 69577.1 10374.4 9472.43 3725.03 2294.79 5747.4 3490.85 950.104 2540.75 2514.68 693.579 2203.59 80.241 1430.25 1356.72 47.7022 73.5316 38.5593 2123.35 2256.54 1839.59 416.952 398.477 112.489 1309.01 298.523 1010.49 265.087 256.619 992.525
internal_count=183922 181759 28705 26375 10219 6470 16156 9949 2477 7472 7373 1958 6186 193 3749 3571 154 178 136 5993 6207 5003 1204 1164 345 3417 832 2585 713 681 2524
is_linear=0
shrinkage=0.100752


Tree=22
num_leaves=32
num_cat=0
split_feature=10 3 13 14 18 4 10 6 6 8 12 4 5 12 12 8 12 13 8 5 4 8 16 5 13 1 6 3 6 16 6
split_gain=19.6855 35.4205 32.2286 31.3791 28.1426 28.2194 27.8392 21.6148 20.6436 20.2902 25.0116 18.8832 26.5966 22.3037 22.7156 21.5149 21.3871 25.8386 20.1403 21.0343 23.1812 19.0877 25.0969 22.6521 23.5673 19.9698 24.6815 19.2773 26.1773 24.0728 21.3706
threshold=0.64208500000000013 1.0000000180025095e-35 258.75401250000004 -1.5267886929334729 1.0000000180025095e-35 86.562120000000007 -0.48935499999999993 -2.1737899999999999 -19.430429999999998 5.332555000000001 2151.1520455000004 90.600740000000016 -18.577014999999996 2714.2533075000006 2692.2041590000003 4.5377250000000009 2531.1209035000006 258.75401250000004 5.4897150000000012 -11.150649999999997 91.414670000000015 5.758960000000001 510063.50000000006 -12.416169999999999 152.39814100000004 1.5000000000000002 -15.482489999999997 1.0000000180025095e-35 -11.799274999999998 1796376.0000000002 15.426275000000002
decision_type=8 2 8 10 2 8 10 10 10 10 10 10 10 10 10 10 10 10 10 10 10 10 2 10 8 2 10 2 10 2 10
left_child=6 2 3 -2 5 7 -1 -4 -5 -6 -11 21 15 14 18 -13 -17 -18 19 -14 -21 27 23 25 -25 26 -23 29 -29 30 -8
right_child=1 -3 4 8 9 -7 11 -9 -10 10 -12 12 13 -15 -16 16 17 -19 -20 20 -22 22 -24 24 -26 -27 -28 28 -30 -31 -32
leaf_value=0.0070391833626744895 -0.002370300516588696 -0.0021081122278016782 0.025629230140514443 -0.033884783752870136 -0.0029280683964045856 -0.040233733617295375 0.021199610395749632 -0.033619699392386675 0.02122608876992885 -0.063537085584998362 0.069798690541664404 0.058537633193064181 -0.0012265965036579814 0.11043955023270574 -0.19403846840701994 -0.0043272493003497 0.029539793903576781 0.23490172827461331 0.013386622143871745 0.032662853200478972 -0.17077816078849745 -0.038976177446967616 0.012958670744885164 0.082536637029029997 -0.029404195685831885 0.015531091069899862 0.0036032463734548908 0.0045451940603097145 0.015219874598018787 -0.005512421888004001 -0.010726844967938996
leaf_weight=14500.596509501338 805.86113817989826 3459.3605736792088 442.3564675450325 70.614971980452538 165.61173897981644 104.19578766822815 7320.0136907547712 72.786908090114594 3007.9760235995054 163.20087561011314 15.6503829061985 60.296909496188164 713.29017876088619 22.999169483780861 5.4780321270227423 2349.1423195898533 93.642783045768738 6.6616723686456671 5311.3325271308422 8.9759995490312594 15.509115174412726 144.91640569269657 12999.037299826741 20.453928962349892 286.61887727677822 1578.7436760216951 2977.8745588809252 3050.4507610499859 9900.7895763069391 386.41037692129612 219.19798150658607
leaf_count=38681 2214 9480 1136 215 469 348 18565 217 7668 532 35 142 1894 43 22 6647 238 9 13518 22 60 436 33351 42 812 4038 7859 8173 25279 1051 605
internal_value=0.0102856 0.0056801 0.0112372 0.015329 -0.00525404 0.0075855 0.0109029 0.0172577 0.019962 -0.0283393 -0.0518695 0.0120831 0.00780718 0.0114104 0.0110342 -0.000918285 -0.00238188 0.0431788 0.0112199 -0.00437851 -0.0961987 0.0130274 0.0106239 0.00456449 -0.0219479 0.0062961 0.0016273 0.0151006 0.0127056 0.0190143 0.0202714
internal_weight=70280 8307.61 4848.25 3884.45 963.802 619.339 61972.4 515.143 3078.59 344.463 178.851 47471.8 8587.33 6077.59 6054.59 2509.74 2449.45 100.304 6049.11 737.775 24.4851 38884.5 18007.6 5008.61 307.073 4701.53 3122.79 20876.9 12951.2 7925.62 7539.21
internal_count=183801 22314 12834 10097 2737 1701 161487 1353 7883 1036 567 122806 22595 15559 15516 7036 6894 247 15494 1976 82 100211 46538 13187 854 12333 8295 53673 33452 20221 19170
is_linear=0
shrinkage=0.100752


Tree=23
num_leaves=32
num_cat=0
split_feature=21 13 3 14 11 14 16 4 7 9 11 4 15 13 16 16 9 11 15 12 13 15 7 7 15 10 1 4 16 12 11
split_gain=21.3671 22.1908 32.9369 29.8412 25.4329 36.7727 24.3622 24.7579 24.7206 21.9426 21.3037 22.5274 22.5085 22.2838 22.3874 21.4566 27.6682 19.7426 23.0176 28.5423 21.4433 26.8016 20.3707 29.8284 20.6096 20.5759 19.5144 19.315 23.3884 19.2168 19.7681
threshold=1.0000000180025095e-35 123.10880400000001 1.0000000180025095e-35 -1.2079501613952612 2.3207150000000003 -0.026099379934373886 1665402.5000000002 87.683720000000008 -1.9866699999999999 5.0259800000000014 1.4223800000000002 80.871290000000016 2.143177384604892 250.73881200000002 420669.50000000006 1614956.0000000002 4.9263750000000011 2.6760450000000007 -0.34444436168215237 2770.4858000000008 58.009371500000007 -0.35430430956256437 1.8231850000000003 3.0530250000000003 -0.29562792247134556 0.4009350000000001 2.5000000000000004 89.275850000000005 30896.500000000004 1829.6379735000003 2.6243650000000005
decision_type=2 8 2 10 10 10 2 10 10 8 10 10 10 8 2 2 10 10 10 10 8 10 10 10 10 10 2 10 2 10 10
left_child=10 2 4 6 5 9 7 8 -4 -2 12 17 -1 -13 -15 16 -14 20 -19 -20 21 -12 -23 24 -24 -25 -18 -3 -29 -26 -31
right_child=1 27 3 -5 -6 -7 -8 -9 -10 -11 11 13 15 14 -16 -17 26 18 19 -21 -22 22 23 25 29 -27 -28 28 -30 30 -32
leaf_value=-0.0050439821839085314 0.031985238957540532 0.014620731215537986 0.0063366511708204268 0.019783069800205676 -0.0075921716834203455 0.040027447592941467 0.047372587457180371 -0.073841793871170222 -0.13647462372675528 -0.11207245750338797 0.03022099424603588 0.0080833551019606591 -0.069408885766589004 -0.018585789561825914 0.0029754605582438891 0.11224657188239943 0.042423186319698644 -0.00013708139652264612 0.019135280333625597 -0.074249350502938863 0.015757999420356775 0.0070779017636031123 -0.1931347495836773 0.11405894912761597 0.068303728230926647 -0.11753944496814508 -0.12715889504019356 0.040781678361817744 0.0090537795424968908 -0.020163615666391063 -0.16112485243058799
leaf_weight=1898.5791980326176 12.315909922122954 17087.316146865487 134.43266569077969 697.29525372385979 230.31039711833 26.758699521422386 46.964101627469063 89.593579813838005 13.543412640690802 83.512449979782104 352.92461897432804 16950.038340300322 31.221953138709068 602.38487219810486 2593.3083488196135 27.64533032476902 148.06783008575439 2536.4772155582905 1213.3877889961004 34.15891894698143 9739.011431440711 1274.1544220745564 6.9753835648298255 26.63946454226971 24.528293743729591 4.5606601685285559 7.2242389917373648 239.90398010611534 13939.24788403511 511.34613947570324 10.302375987172125
leaf_count=5618 31 43460 359 1827 633 66 112 297 50 301 858 44527 105 1796 7215 57 386 6717 3046 109 24802 3389 28 51 54 16 28 572 36219 1454 39
internal_value=0.00990425 0.0117965 -0.00092586 0.00856282 -0.0273252 -0.0643986 -0.0189342 -0.0320421 -0.00673406 -0.0935581 0.00828054 0.00885947 -0.00155131 0.00662839 -0.00108881 0.0294122 0.0171344 0.0117161 0.00537379 0.0165783 0.0137243 0.004768 -6.54392e-05 -0.0156412 -0.0210473 0.0802052 0.0345342 0.0123396 0.0095906 -0.0188495 -0.0229476
internal_weight=70594.1 32601.2 1334.73 981.829 352.897 122.587 284.534 237.57 147.976 95.8284 37992.9 35880.2 2112.74 20145.7 3195.69 214.159 186.514 15734.5 3784.02 1247.55 11950.4 2211.43 1858.51 584.352 553.152 31.2001 155.292 31266.5 14179.2 546.177 521.649
internal_count=184222 83927 3676 2645 1031 398 818 706 409 332 100295 94101 6194 53538 9011 576 519 40563 9872 3155 30691 5889 5031 1642 1575 67 414 80251 36791 1547 1493
is_linear=0
shrinkage=0.100752


Tree=24
num_leaves=32
num_cat=0
split_feature=10 9 16 13 13 11 6 8 8 12 13 16 11 6 1 13 9 13 7 6 3 11 13 9 11 12 12 11 16 8 9
split_gain=21.4778 20.1545 26.1759 22.1901 19.8998 19.5115 18.6825 17.8576 17.278 24.2795 16.446 15.9966 15.7341 27.4113 15.5718 24.1699 31.2867 15.4318 30.1914 21.2005 16.2754 26.6786 26.6557 24.0934 21.7559 20.1236 19.1448 17.3752 15.4086 15.1437 15.1112
threshold=-0.48935499999999993 5.2218750000000016 222197.50000000003 36.555982500000006 260.90712800000006 1.3749700000000002 -12.169459999999999 6.4755650000000005 6.9307200000000009 2321.4372640000006 211.98366800000002 390990.50000000006 1.3999200000000001 -7.0791699999999995 1.0000000180025095e-35 100.93067550000002 5.4693650000000007 254.82653700000003 2.0928250000000004 -14.394715 1.0000000180025095e-35 2.2787150000000005 220.29138000000003 6.979445000000001 1.5049950000000003 2318.4941005000005 1694.8863710000003 3.5216900000000004 1738915.5000000002 6.5737050000000012 6.0751700000000008
decision_type=10 8 2 10 10 10 8 10 10 10 10 2 10 8 2 10 10 10 10 10 2 10 10 10 10 10 8 10 2 8 10
left_child=1 2 29 -3 5 7 11 14 -2 -10 -11 -6 13 -7 28 16 -16 20 19 -19 21 -14 24 -23 -22 -25 -26 -24 -5 -1 -15
right_child=8 3 -4 4 6 12 -8 -9 9 10 -12 -13 17 30 15 -17 -18 18 -20 -21 22 23 27 25 26 -27 -28 -29 -30 -31 -32
leaf_value=-0.014030049432761846 0.0094379737707152248 -0.025988099195455309 0.017025019503365629 0.023752576921709605 -0.17384320577251827 -0.12359134132006114 -0.0062941953432373065 -0.16460354239264141 0.055310497837543056 0.0064226350723073184 -0.13175375188659486 -0.041917798084263769 0.01338827093195862 0.13027588617776151 0.0080803431738145897 -0.0072811233069297919 -0.13407184649922796 -0.090160353495879031 0.10204519473982467 0.037133037387995761 -0.032419643875658835 -0.013255274492998266 -0.0070359854127569239 0.020404251660063842 -0.0081012089983624053 0.16356547095213939 0.0111077190827396 -0.1494243560871811 -0.17057974805393378 -0.18801684514669234 -0.033498036516826861
leaf_weight=239.3384243696928 55816.434891402721 253.18934689462185 2201.5351713299751 99.975256994366646 10.549678951501845 6.5878749340772629 371.83282266557217 8.4185502231121045 174.66113775968552 40.975950852036476 11.115821868181227 80.697132155299187 693.75878019630909 30.265349939465523 24.959295332431793 132.0319167971611 42.442431166768074 19.74293065071106 48.821395009756088 40.580155536532402 126.66103549301624 1381.7042431682348 1021.6429304182529 40.878568336367607 568.96165154874325 13.180664688348768 7088.7663974165916 8.7741217464208585 4.3207264244556418 5.1882521957159033 7.0513887554407111
leaf_count=673 144968 766 5702 287 44 25 1040 36 396 109 40 262 1798 63 75 409 171 70 103 101 409 3807 2831 103 1568 20 18377 33 18 21 22
internal_value=0.00865475 0.00520884 0.0135515 0.00352593 0.00415533 0.00498633 -0.0163191 -0.0198562 0.00955073 0.0373059 -0.0230627 -0.0571706 0.0056851 0.0658799 -0.0158442 -0.0323416 -0.081432 0.00544601 0.043143 -0.00452837 0.00507007 -0.00283474 0.00697975 -0.0106737 0.0089955 0.0553097 0.00968051 -0.00824844 0.0157019 -0.0177216 0.0993291
internal_weight=70615 14571.9 2446.06 12125.8 11872.6 11409.5 463.08 312.148 56043.2 226.753 52.0918 91.2468 11097.4 43.9046 303.73 199.434 67.4017 11053.5 109.144 60.3231 10944.3 2129.52 8814.81 1435.76 7784.39 54.0592 7657.73 1030.42 104.296 244.527 37.3167
internal_count=184347 38834 6396 32438 31672 30326 1346 996 145513 545 149 306 29330 110 960 655 246 29220 274 171 28946 5728 23218 3930 20354 123 19945 2864 305 694 85
is_linear=0
shrinkage=0.100752


Tree=25
num_leaves=32
num_cat=0
split_feature=5 11 9 10 15 11 5 9 5 8 10 7 10 16 13 1 15 6 15 11 10 15 8 13 5 3 11 5 13 15 9
split_gain=21.8567 25.2029 30.0127 29.7812 24.8941 24.046 22.7693 22.6795 28.2628 23.1958 22.2037 21.8734 23.5232 21.2039 20.7215 27.0307 20.0094 19.3211 18.8397 25.3491 39.3078 22.1413 21.6727 21.48 26.7062 19.9938 22.1659 18.8505 17.5332 19.2735 17.4423
threshold=-21.942029999999995 2.3207150000000003 6.1659650000000008 -0.30486499999999994 -0.71980484200591055 1.8353350000000002 -26.558039999999995 6.3854500000000014 -24.967029999999998 5.861555000000001 -1.1023399999999997 3.0530250000000003 -0.87227999999999983 1222757.0000000002 243.80118200000001 1.0000000180025095e-35 -0.40398535262747742 14.013030000000002 -1.8689909638849482 3.1929350000000007 -1.0707049999999996 -2.1299633891987342 6.2702850000000003 49.446947500000007 -41.110634999999995 1.0000000180025095e-35 3.1661750000000004 -23.392144999999996 177.75169250000002 0.25959022844240126 6.2453350000000007
decision_type=8 10 8 10 8 10 10 10 10 10 10 10 10 2 8 2 10 10 10 10 8 10 10 10 10 2 10 10 10 10 10
left_child=1 2 11 6 5 -2 -4 8 10 -10 -8 -1 -13 17 15 -5 -16 -9 19 25 -21 -22 23 24 -20 27 -27 -3 29 -12 -18
right_child=4 18 3 14 -6 -7 7 13 9 -11 28 12 -14 -15 16 -17 30 -19 22 20 21 -23 -24 -25 -26 26 -28 -29 -30 -31 -32
leaf_value=0.0045424057179397469 0.052345504023907113 -0.010092265729909821 -0.034390829550143699 -0.010892429952539194 0.011107155809187429 0.0037554761223511568 -0.17173698973052096 0.003231158369712508 -0.038500088435922598 -0.15186883345674942 0.11529701546084038 -0.056434301650546241 0.026377690169402869 0.051506973461408853 0.020657901020318593 0.02200710214976577 -0.047478477103452009 -0.125915309874952 -0.020648197739085217 0.095101783865287309 -0.018686494774585546 -0.07813198543505874 -0.0025656032774795511 0.009791641868178904 0.030579638143444245 0.012044838982729657 0.11921545749397475 -0.10740222232394753 -0.029175988379988884 -0.044867098811137027 -0.0091104463191293058
leaf_weight=15154.88814496994 104.897366553545 182.44268035888672 522.362051025033 387.11976957321167 26601.069801643491 7169.8252446949482 5.719935029745101 138.36818484961987 90.901923611760139 22.944359347224236 31.114783734083176 36.632028073072433 703.60127872228622 103.11681596934795 189.18238832056522 734.47632525861263 144.37465524673462 12.851253464817999 116.37144882977009 24.01473043859005 184.45688150823116 97.074673637747765 1335.1492269784212 13970.223376527429 919.79579374194145 514.251404479146 20.366159677505493 22.724768906831741 26.359371051192284 10.103175327181814 720.50470751523972
leaf_count=41002 244 494 1593 1081 67572 18809 24 386 278 89 60 116 1801 250 487 1885 464 48 336 50 517 312 3585 36075 2220 1317 37 77 79 32 2136
internal_value=0.00783678 0.00612344 0.00359042 -0.00541153 0.00967887 0.00445612 -0.0201546 -0.00331013 -0.0299316 -0.0613482 0.018865 0.00536842 0.0222796 0.0162783 0.00111981 0.0106518 -0.0090229 -0.00774424 0.00889652 -0.00421642 -0.0286295 -0.0391838 0.00973532 0.0108298 0.0248263 0.00586669 0.0161275 -0.0208705 0.0349981 0.0760383 -0.0155152
internal_weight=70297.3 36421.5 19034.6 3139.5 33875.8 7274.72 963.842 441.48 187.144 113.846 73.2973 15895.1 740.233 254.336 2175.66 1121.6 1054.06 151.219 17386.9 1045.33 305.546 281.532 16341.5 15006.4 1036.17 739.785 534.618 205.167 67.5773 41.218 864.879
internal_count=183456 96831 51811 8892 86625 19053 2839 1246 562 367 195 42919 1917 684 6053 2966 3087 434 45020 2804 879 829 42216 38631 2556 1925 1354 571 171 92 2600
is_linear=0
shrinkage=0.100752


Tree=26
num_leaves=32
num_cat=0
split_feature=8 14 6 13 4 14 6 3 6 6 6 10 13 10 14 9 9 6 13 4 12 8 9 10 9 6 10 4 12 12 9
split_gain=19.2243 27.1859 26.3142 20.146 49.0617 32.7761 19.9138 19.7304 40.2855 34.5449 23.5989 33.2044 27.4999 23.5959 28.1758 23.1823 23.3788 25.2964 22.6478 22.2831 20.9586 21.6785 20.8418 19.6792 20.4548 19.6568 19.522 18.682 19.3351 18.2169 19.2201
threshold=5.9182750000000004 3.515358715558627 -21.847749999999994 264.68770000000006 86.021505000000019 -2.2439900261229933 11.512825000000001 1.0000000180025095e-35 14.272500000000003 -15.954164999999998 -13.503659999999998 1.4247800000000004 209.86729700000004 0.82487500000000014 -1.9004083288799405 5.4079950000000006 5.3537850000000011 -13.503659999999998 110.75478850000002 79.454705000000004 2474.4632645000006 5.8895450000000009 5.3052350000000006 -0.96547499999999997 5.4557050000000009 -15.027544999999998 -0.32462499999999994 84.119400000000027 2137.5911665000008 1751.7409620000001 5.2523100000000005
